digraph Tree {
node [shape=box, style="filled, rounded", color="black", fontname="helvetica"] ;
edge [fontname="helvetica"] ;
0 [label="occupation_ Adm-clerical <= 0.5\ngini = 0.365\nsamples = 20553\nvalue = [24745, 7816]\nclass = <=50K", fillcolor="#eda978"] ;
1 [label="workclass_ Self-emp-inc <= 0.5\ngini = 0.378\nsamples = 18190\nvalue = [21525, 7291]\nclass = <=50K", fillcolor="#eeac7c"] ;
0 -> 1 [labeldistance=2.5, labelangle=45, headlabel="True"] ;
2 [label="occupation_ Prof-specialty <= 0.5\ngini = 0.366\nsamples = 17493\nvalue = [21055, 6681]\nclass = <=50K", fillcolor="#eda978"] ;
1 -> 2 ;
3 [label="relationship_ Husband <= 0.5\ngini = 0.332\nsamples = 15018\nvalue = [18814, 5008]\nclass = <=50K", fillcolor="#eca36e"] ;
2 -> 3 ;
4 [label="education_ Masters <= 0.5\ngini = 0.137\nsamples = 8656\nvalue = [12728, 1016]\nclass = <=50K", fillcolor="#e78b49"] ;
3 -> 4 ;
5 [label="marital-status_ Married-civ-spouse <= 0.5\ngini = 0.124\nsamples = 8456\nvalue = [12553, 893]\nclass = <=50K", fillcolor="#e78a47"] ;
4 -> 5 ;
6 [label="education_ Prof-school <= 0.5\ngini = 0.089\nsamples = 7809\nvalue = [11874, 585]\nclass = <=50K", fillcolor="#e68743"] ;
5 -> 6 ;
7 [label="relationship_ Not-in-family <= 0.5\ngini = 0.088\nsamples = 7791\nvalue = [11857, 576]\nclass = <=50K", fillcolor="#e68743"] ;
6 -> 7 ;
8 [label="workclass_ Federal-gov <= 0.5\ngini = 0.039\nsamples = 4316\nvalue = [6765, 139]\nclass = <=50K", fillcolor="#e6843d"] ;
7 -> 8 ;
9 [label="occupation_ Craft-repair <= 0.5\ngini = 0.037\nsamples = 4256\nvalue = [6680, 128]\nclass = <=50K", fillcolor="#e5833d"] ;
8 -> 9 ;
10 [label="marital-status_ Divorced <= 0.5\ngini = 0.03\nsamples = 3825\nvalue = [6023, 94]\nclass = <=50K", fillcolor="#e5833c"] ;
9 -> 10 ;
11 [label="education_ Doctorate <= 0.5\ngini = 0.019\nsamples = 3170\nvalue = [5029, 48]\nclass = <=50K", fillcolor="#e5823b"] ;
10 -> 11 ;
12 [label="occupation_ Transport-moving <= 0.5\ngini = 0.018\nsamples = 3169\nvalue = [5029, 47]\nclass = <=50K", fillcolor="#e5823b"] ;
11 -> 12 ;
13 [label="occupation_ Protective-serv <= 0.5\ngini = 0.016\nsamples = 3032\nvalue = [4817, 40]\nclass = <=50K", fillcolor="#e5823b"] ;
12 -> 13 ;
14 [label="marital-status_ Married-AF-spouse <= 0.5\ngini = 0.015\nsamples = 2973\nvalue = [4730, 36]\nclass = <=50K", fillcolor="#e5823b"] ;
13 -> 14 ;
15 [label="relationship_ Unmarried <= 0.5\ngini = 0.014\nsamples = 2968\nvalue = [4724, 34]\nclass = <=50K", fillcolor="#e5823a"] ;
14 -> 15 ;
16 [label="occupation_ Machine-op-inspct <= 0.5\ngini = 0.006\nsamples = 2285\nvalue = [3643, 11]\nclass = <=50K", fillcolor="#e5813a"] ;
15 -> 16 ;
17 [label="gender_ Female <= 0.5\ngini = 0.005\nsamples = 2115\nvalue = [3378, 9]\nclass = <=50K", fillcolor="#e5813a"] ;
16 -> 17 ;
18 [label="education_ Assoc-acdm <= 0.5\ngini = 0.009\nsamples = 1169\nvalue = [1858, 8]\nclass = <=50K", fillcolor="#e5823a"] ;
17 -> 18 ;
19 [label="workclass_ Self-emp-not-inc <= 0.5\ngini = 0.007\nsamples = 1140\nvalue = [1808, 6]\nclass = <=50K", fillcolor="#e5813a"] ;
18 -> 19 ;
20 [label="education_ Bachelors <= 0.5\ngini = 0.002\nsamples = 1097\nvalue = [1753, 2]\nclass = <=50K", fillcolor="#e58139"] ;
19 -> 20 ;
21 [label="gini = 0.0\nsamples = 1020\nvalue = [1642, 0]\nclass = <=50K", fillcolor="#e58139"] ;
20 -> 21 ;
22 [label="occupation_ Sales <= 0.5\ngini = 0.035\nsamples = 77\nvalue = [111, 2]\nclass = <=50K", fillcolor="#e5833d"] ;
20 -> 22 ;
23 [label="occupation_ Tech-support <= 0.5\ngini = 0.048\nsamples = 54\nvalue = [80, 2]\nclass = <=50K", fillcolor="#e6843e"] ;
22 -> 23 ;
24 [label="occupation_ ? <= 0.5\ngini = 0.056\nsamples = 44\nvalue = [68, 2]\nclass = <=50K", fillcolor="#e6853f"] ;
23 -> 24 ;
25 [label="relationship_ Other-relative <= 0.5\ngini = 0.064\nsamples = 38\nvalue = [58, 2]\nclass = <=50K", fillcolor="#e68540"] ;
24 -> 25 ;
26 [label="gini = 0.0\nsamples = 34\nvalue = [54, 0]\nclass = <=50K", fillcolor="#e58139"] ;
25 -> 26 ;
27 [label="race_ Black <= 0.5\ngini = 0.444\nsamples = 4\nvalue = [4, 2]\nclass = <=50K", fillcolor="#f2c09c"] ;
25 -> 27 ;
28 [label="occupation_ Other-service <= 0.5\ngini = 0.5\nsamples = 3\nvalue = [2, 2]\nclass = <=50K", fillcolor="#ffffff"] ;
27 -> 28 ;
29 [label="gini = 0.0\nsamples = 1\nvalue = [0, 2]\nclass = >50K", fillcolor="#399de5"] ;
28 -> 29 ;
30 [label="gini = 0.0\nsamples = 2\nvalue = [2, 0]\nclass = <=50K", fillcolor="#e58139"] ;
28 -> 30 ;
31 [label="gini = 0.0\nsamples = 1\nvalue = [2, 0]\nclass = <=50K", fillcolor="#e58139"] ;
27 -> 31 ;
32 [label="gini = 0.0\nsamples = 6\nvalue = [10, 0]\nclass = <=50K", fillcolor="#e58139"] ;
24 -> 32 ;
33 [label="gini = 0.0\nsamples = 10\nvalue = [12, 0]\nclass = <=50K", fillcolor="#e58139"] ;
23 -> 33 ;
34 [label="gini = 0.0\nsamples = 23\nvalue = [31, 0]\nclass = <=50K", fillcolor="#e58139"] ;
22 -> 34 ;
35 [label="relationship_ Other-relative <= 0.5\ngini = 0.126\nsamples = 43\nvalue = [55, 4]\nclass = <=50K", fillcolor="#e78a47"] ;
19 -> 35 ;
36 [label="race_ Black <= 0.5\ngini = 0.075\nsamples = 38\nvalue = [49, 2]\nclass = <=50K", fillcolor="#e68641"] ;
35 -> 36 ;
37 [label="education_ HS-grad <= 0.5\ngini = 0.04\nsamples = 36\nvalue = [48, 1]\nclass = <=50K", fillcolor="#e6843d"] ;
36 -> 37 ;
38 [label="education_ Some-college <= 0.5\ngini = 0.054\nsamples = 25\nvalue = [35, 1]\nclass = <=50K", fillcolor="#e6853f"] ;
37 -> 38 ;
39 [label="marital-status_ Never-married <= 0.5\ngini = 0.087\nsamples = 15\nvalue = [21, 1]\nclass = <=50K", fillcolor="#e68742"] ;
38 -> 39 ;
40 [label="gini = 0.0\nsamples = 1\nvalue = [0, 1]\nclass = >50K", fillcolor="#399de5"] ;
39 -> 40 ;
41 [label="gini = 0.0\nsamples = 14\nvalue = [21, 0]\nclass = <=50K", fillcolor="#e58139"] ;
39 -> 41 ;
42 [label="gini = 0.0\nsamples = 10\nvalue = [14, 0]\nclass = <=50K", fillcolor="#e58139"] ;
38 -> 42 ;
43 [label="gini = 0.0\nsamples = 11\nvalue = [13, 0]\nclass = <=50K", fillcolor="#e58139"] ;
37 -> 43 ;
44 [label="occupation_ Farming-fishing <= 0.5\ngini = 0.5\nsamples = 2\nvalue = [1, 1]\nclass = <=50K", fillcolor="#ffffff"] ;
36 -> 44 ;
45 [label="gini = 0.0\nsamples = 1\nvalue = [0, 1]\nclass = >50K", fillcolor="#399de5"] ;
44 -> 45 ;
46 [label="gini = 0.0\nsamples = 1\nvalue = [1, 0]\nclass = <=50K", fillcolor="#e58139"] ;
44 -> 46 ;
47 [label="native-country_ Mexico <= 0.5\ngini = 0.375\nsamples = 5\nvalue = [6, 2]\nclass = <=50K", fillcolor="#eeab7b"] ;
35 -> 47 ;
48 [label="race_ Asian-Pac-Islander <= 0.5\ngini = 0.444\nsamples = 4\nvalue = [4, 2]\nclass = <=50K", fillcolor="#f2c09c"] ;
47 -> 48 ;
49 [label="gini = 0.0\nsamples = 3\nvalue = [4, 0]\nclass = <=50K", fillcolor="#e58139"] ;
48 -> 49 ;
50 [label="gini = 0.0\nsamples = 1\nvalue = [0, 2]\nclass = >50K", fillcolor="#399de5"] ;
48 -> 50 ;
51 [label="gini = 0.0\nsamples = 1\nvalue = [2, 0]\nclass = <=50K", fillcolor="#e58139"] ;
47 -> 51 ;
52 [label="occupation_ Other-service <= 0.5\ngini = 0.074\nsamples = 29\nvalue = [50, 2]\nclass = <=50K", fillcolor="#e68641"] ;
18 -> 52 ;
53 [label="workclass_ Private <= 0.5\ngini = 0.097\nsamples = 22\nvalue = [37, 2]\nclass = <=50K", fillcolor="#e68844"] ;
52 -> 53 ;
54 [label="workclass_ ? <= 0.5\ngini = 0.346\nsamples = 6\nvalue = [7, 2]\nclass = <=50K", fillcolor="#eca572"] ;
53 -> 54 ;
55 [label="gini = 0.0\nsamples = 1\nvalue = [0, 2]\nclass = >50K", fillcolor="#399de5"] ;
54 -> 55 ;
56 [label="gini = 0.0\nsamples = 5\nvalue = [7, 0]\nclass = <=50K", fillcolor="#e58139"] ;
54 -> 56 ;
57 [label="gini = 0.0\nsamples = 16\nvalue = [30, 0]\nclass = <=50K", fillcolor="#e58139"] ;
53 -> 57 ;
58 [label="gini = 0.0\nsamples = 7\nvalue = [13, 0]\nclass = <=50K", fillcolor="#e58139"] ;
52 -> 58 ;
59 [label="occupation_ Exec-managerial <= 0.5\ngini = 0.001\nsamples = 946\nvalue = [1520, 1]\nclass = <=50K", fillcolor="#e58139"] ;
17 -> 59 ;
60 [label="gini = 0.0\nsamples = 876\nvalue = [1412, 0]\nclass = <=50K", fillcolor="#e58139"] ;
59 -> 60 ;
61 [label="education_ Some-college <= 0.5\ngini = 0.018\nsamples = 70\nvalue = [108, 1]\nclass = <=50K", fillcolor="#e5823b"] ;
59 -> 61 ;
62 [label="race_ Black <= 0.5\ngini = 0.026\nsamples = 48\nvalue = [75, 1]\nclass = <=50K", fillcolor="#e5833c"] ;
61 -> 62 ;
63 [label="native-country_ Philippines <= 0.5\ngini = 0.028\nsamples = 45\nvalue = [70, 1]\nclass = <=50K", fillcolor="#e5833c"] ;
62 -> 63 ;
64 [label="workclass_ Self-emp-not-inc <= 0.5\ngini = 0.029\nsamples = 43\nvalue = [67, 1]\nclass = <=50K", fillcolor="#e5833c"] ;
63 -> 64 ;
65 [label="native-country_ Taiwan <= 0.5\ngini = 0.03\nsamples = 42\nvalue = [65, 1]\nclass = <=50K", fillcolor="#e5833c"] ;
64 -> 65 ;
66 [label="race_ Asian-Pac-Islander <= 0.5\ngini = 0.031\nsamples = 41\nvalue = [62, 1]\nclass = <=50K", fillcolor="#e5833c"] ;
65 -> 66 ;
67 [label="native-country_ United-States <= 0.5\ngini = 0.032\nsamples = 40\nvalue = [61, 1]\nclass = <=50K", fillcolor="#e5833c"] ;
66 -> 67 ;
68 [label="gini = 0.0\nsamples = 4\nvalue = [6, 0]\nclass = <=50K", fillcolor="#e58139"] ;
67 -> 68 ;
69 [label="race_ White <= 0.5\ngini = 0.035\nsamples = 36\nvalue = [55, 1]\nclass = <=50K", fillcolor="#e5833d"] ;
67 -> 69 ;
70 [label="gini = 0.0\nsamples = 2\nvalue = [2, 0]\nclass = <=50K", fillcolor="#e58139"] ;
69 -> 70 ;
71 [label="education_ Bachelors <= 0.5\ngini = 0.036\nsamples = 34\nvalue = [53, 1]\nclass = <=50K", fillcolor="#e5833d"] ;
69 -> 71 ;
72 [label="gini = 0.0\nsamples = 14\nvalue = [20, 0]\nclass = <=50K", fillcolor="#e58139"] ;
71 -> 72 ;
73 [label="relationship_ Own-child <= 0.5\ngini = 0.057\nsamples = 20\nvalue = [33, 1]\nclass = <=50K", fillcolor="#e6853f"] ;
71 -> 73 ;
74 [label="gini = 0.0\nsamples = 2\nvalue = [4, 0]\nclass = <=50K", fillcolor="#e58139"] ;
73 -> 74 ;
75 [label="gini = 0.064\nsamples = 18\nvalue = [29, 1]\nclass = <=50K", fillcolor="#e68540"] ;
73 -> 75 ;
76 [label="gini = 0.0\nsamples = 1\nvalue = [1, 0]\nclass = <=50K", fillcolor="#e58139"] ;
66 -> 76 ;
77 [label="gini = 0.0\nsamples = 1\nvalue = [3, 0]\nclass = <=50K", fillcolor="#e58139"] ;
65 -> 77 ;
78 [label="gini = 0.0\nsamples = 1\nvalue = [2, 0]\nclass = <=50K", fillcolor="#e58139"] ;
64 -> 78 ;
79 [label="gini = 0.0\nsamples = 2\nvalue = [3, 0]\nclass = <=50K", fillcolor="#e58139"] ;
63 -> 79 ;
80 [label="gini = 0.0\nsamples = 3\nvalue = [5, 0]\nclass = <=50K", fillcolor="#e58139"] ;
62 -> 80 ;
81 [label="gini = 0.0\nsamples = 22\nvalue = [33, 0]\nclass = <=50K", fillcolor="#e58139"] ;
61 -> 81 ;
82 [label="gender_ Male <= 0.5\ngini = 0.015\nsamples = 170\nvalue = [265, 2]\nclass = <=50K", fillcolor="#e5823a"] ;
16 -> 82 ;
83 [label="gini = 0.0\nsamples = 54\nvalue = [87, 0]\nclass = <=50K", fillcolor="#e58139"] ;
82 -> 83 ;
84 [label="education_ Some-college <= 0.5\ngini = 0.022\nsamples = 116\nvalue = [178, 2]\nclass = <=50K", fillcolor="#e5823b"] ;
82 -> 84 ;
85 [label="education_ 7th-8th <= 0.5\ngini = 0.029\nsamples = 90\nvalue = [133, 2]\nclass = <=50K", fillcolor="#e5833c"] ;
84 -> 85 ;
86 [label="education_ Assoc-acdm <= 0.5\ngini = 0.031\nsamples = 85\nvalue = [126, 2]\nclass = <=50K", fillcolor="#e5833c"] ;
85 -> 86 ;
87 [label="relationship_ Own-child <= 0.5\ngini = 0.031\nsamples = 83\nvalue = [123, 2]\nclass = <=50K", fillcolor="#e5833c"] ;
86 -> 87 ;
88 [label="gini = 0.0\nsamples = 19\nvalue = [35, 0]\nclass = <=50K", fillcolor="#e58139"] ;
87 -> 88 ;
89 [label="native-country_ Mexico <= 0.5\ngini = 0.043\nsamples = 64\nvalue = [88, 2]\nclass = <=50K", fillcolor="#e6843d"] ;
87 -> 89 ;
90 [label="race_ Black <= 0.5\ngini = 0.045\nsamples = 61\nvalue = [84, 2]\nclass = <=50K", fillcolor="#e6843e"] ;
89 -> 90 ;
91 [label="workclass_ Self-emp-not-inc <= 0.5\ngini = 0.051\nsamples = 55\nvalue = [75, 2]\nclass = <=50K", fillcolor="#e6843e"] ;
90 -> 91 ;
92 [label="gini = 0.0\nsamples = 54\nvalue = [75, 0]\nclass = <=50K", fillcolor="#e58139"] ;
91 -> 92 ;
93 [label="gini = 0.0\nsamples = 1\nvalue = [0, 2]\nclass = >50K", fillcolor="#399de5"] ;
91 -> 93 ;
94 [label="gini = 0.0\nsamples = 6\nvalue = [9, 0]\nclass = <=50K", fillcolor="#e58139"] ;
90 -> 94 ;
95 [label="gini = 0.0\nsamples = 3\nvalue = [4, 0]\nclass = <=50K", fillcolor="#e58139"] ;
89 -> 95 ;
96 [label="gini = 0.0\nsamples = 2\nvalue = [3, 0]\nclass = <=50K", fillcolor="#e58139"] ;
86 -> 96 ;
97 [label="gini = 0.0\nsamples = 5\nvalue = [7, 0]\nclass = <=50K", fillcolor="#e58139"] ;
85 -> 97 ;
98 [label="gini = 0.0\nsamples = 26\nvalue = [45, 0]\nclass = <=50K", fillcolor="#e58139"] ;
84 -> 98 ;
99 [label="gender_ Female <= 0.5\ngini = 0.041\nsamples = 683\nvalue = [1081, 23]\nclass = <=50K", fillcolor="#e6843d"] ;
15 -> 99 ;
100 [label="marital-status_ Widowed <= 0.5\ngini = 0.11\nsamples = 145\nvalue = [226, 14]\nclass = <=50K", fillcolor="#e78945"] ;
99 -> 100 ;
101 [label="occupation_ Farming-fishing <= 0.5\ngini = 0.075\nsamples = 126\nvalue = [198, 8]\nclass = <=50K", fillcolor="#e68641"] ;
100 -> 101 ;
102 [label="race_ White <= 0.5\ngini = 0.09\nsamples = 103\nvalue = [161, 8]\nclass = <=50K", fillcolor="#e68743"] ;
101 -> 102 ;
103 [label="gini = 0.0\nsamples = 21\nvalue = [31, 0]\nclass = <=50K", fillcolor="#e58139"] ;
102 -> 103 ;
104 [label="education_ 9th <= 0.5\ngini = 0.109\nsamples = 82\nvalue = [130, 8]\nclass = <=50K", fillcolor="#e78945"] ;
102 -> 104 ;
105 [label="workclass_ ? <= 0.5\ngini = 0.116\nsamples = 79\nvalue = [122, 8]\nclass = <=50K", fillcolor="#e78946"] ;
104 -> 105 ;
106 [label="marital-status_ Never-married <= 0.5\ngini = 0.125\nsamples = 72\nvalue = [111, 8]\nclass = <=50K", fillcolor="#e78a47"] ;
105 -> 106 ;
107 [label="marital-status_ Married-spouse-absent <= 0.5\ngini = 0.239\nsamples = 19\nvalue = [31, 5]\nclass = <=50K", fillcolor="#e99559"] ;
106 -> 107 ;
108 [label="occupation_ Handlers-cleaners <= 0.5\ngini = 0.351\nsamples = 12\nvalue = [17, 5]\nclass = <=50K", fillcolor="#eda673"] ;
107 -> 108 ;
109 [label="education_ Bachelors <= 0.5\ngini = 0.43\nsamples = 8\nvalue = [11, 5]\nclass = <=50K", fillcolor="#f1ba93"] ;
108 -> 109 ;
110 [label="education_ 1st-4th <= 0.5\ngini = 0.153\nsamples = 7\nvalue = [11, 1]\nclass = <=50K", fillcolor="#e78c4b"] ;
109 -> 110 ;
111 [label="workclass_ Self-emp-not-inc <= 0.5\ngini = 0.198\nsamples = 6\nvalue = [8, 1]\nclass = <=50K", fillcolor="#e89152"] ;
110 -> 111 ;
112 [label="education_ Some-college <= 0.5\ngini = 0.32\nsamples = 4\nvalue = [4, 1]\nclass = <=50K", fillcolor="#eca06a"] ;
111 -> 112 ;
113 [label="gini = 0.0\nsamples = 3\nvalue = [4, 0]\nclass = <=50K", fillcolor="#e58139"] ;
112 -> 113 ;
114 [label="gini = 0.0\nsamples = 1\nvalue = [0, 1]\nclass = >50K", fillcolor="#399de5"] ;
112 -> 114 ;
115 [label="gini = 0.0\nsamples = 2\nvalue = [4, 0]\nclass = <=50K", fillcolor="#e58139"] ;
111 -> 115 ;
116 [label="gini = 0.0\nsamples = 1\nvalue = [3, 0]\nclass = <=50K", fillcolor="#e58139"] ;
110 -> 116 ;
117 [label="gini = 0.0\nsamples = 1\nvalue = [0, 4]\nclass = >50K", fillcolor="#399de5"] ;
109 -> 117 ;
118 [label="gini = 0.0\nsamples = 4\nvalue = [6, 0]\nclass = <=50K", fillcolor="#e58139"] ;
108 -> 118 ;
119 [label="gini = 0.0\nsamples = 7\nvalue = [14, 0]\nclass = <=50K", fillcolor="#e58139"] ;
107 -> 119 ;
120 [label="occupation_ Machine-op-inspct <= 0.5\ngini = 0.07\nsamples = 53\nvalue = [80, 3]\nclass = <=50K", fillcolor="#e68640"] ;
106 -> 120 ;
121 [label="native-country_ Mexico <= 0.5\ngini = 0.086\nsamples = 45\nvalue = [64, 3]\nclass = <=50K", fillcolor="#e68742"] ;
120 -> 121 ;
122 [label="education_ Assoc-voc <= 0.5\ngini = 0.088\nsamples = 44\nvalue = [62, 3]\nclass = <=50K", fillcolor="#e68743"] ;
121 -> 122 ;
123 [label="education_ Bachelors <= 0.5\ngini = 0.089\nsamples = 43\nvalue = [61, 3]\nclass = <=50K", fillcolor="#e68743"] ;
122 -> 123 ;
124 [label="education_ 10th <= 0.5\ngini = 0.07\nsamples = 36\nvalue = [53, 2]\nclass = <=50K", fillcolor="#e68640"] ;
123 -> 124 ;
125 [label="occupation_ Handlers-cleaners <= 0.5\ngini = 0.078\nsamples = 33\nvalue = [47, 2]\nclass = <=50K", fillcolor="#e68641"] ;
124 -> 125 ;
126 [label="native-country_ ? <= 0.5\ngini = 0.124\nsamples = 21\nvalue = [28, 2]\nclass = <=50K", fillcolor="#e78a47"] ;
125 -> 126 ;
127 [label="workclass_ Self-emp-not-inc <= 0.5\ngini = 0.128\nsamples = 20\nvalue = [27, 2]\nclass = <=50K", fillcolor="#e78a48"] ;
126 -> 127 ;
128 [label="native-country_ El-Salvador <= 0.5\ngini = 0.142\nsamples = 18\nvalue = [24, 2]\nclass = <=50K", fillcolor="#e78c49"] ;
127 -> 128 ;
129 [label="education_ Assoc-acdm <= 0.5\ngini = 0.159\nsamples = 17\nvalue = [21, 2]\nclass = <=50K", fillcolor="#e78d4c"] ;
128 -> 129 ;
130 [label="education_ Some-college <= 0.5\ngini = 0.172\nsamples = 15\nvalue = [19, 2]\nclass = <=50K", fillcolor="#e88e4e"] ;
129 -> 130 ;
131 [label="occupation_ Exec-managerial <= 0.5\ngini = 0.278\nsamples = 10\nvalue = [10, 2]\nclass = <=50K", fillcolor="#ea9a61"] ;
130 -> 131 ;
132 [label="occupation_ Other-service <= 0.5\ngini = 0.165\nsamples = 9\nvalue = [10, 1]\nclass = <=50K", fillcolor="#e88e4d"] ;
131 -> 132 ;
133 [label="gini = 0.219\nsamples = 7\nvalue = [7, 1]\nclass = <=50K", fillcolor="#e99355"] ;
132 -> 133 ;
134 [label="gini = 0.0\nsamples = 2\nvalue = [3, 0]\nclass = <=50K", fillcolor="#e58139"] ;
132 -> 134 ;
135 [label="gini = 0.0\nsamples = 1\nvalue = [0, 1]\nclass = >50K", fillcolor="#399de5"] ;
131 -> 135 ;
136 [label="gini = 0.0\nsamples = 5\nvalue = [9, 0]\nclass = <=50K", fillcolor="#e58139"] ;
130 -> 136 ;
137 [label="gini = 0.0\nsamples = 2\nvalue = [2, 0]\nclass = <=50K", fillcolor="#e58139"] ;
129 -> 137 ;
138 [label="gini = 0.0\nsamples = 1\nvalue = [3, 0]\nclass = <=50K", fillcolor="#e58139"] ;
128 -> 138 ;
139 [label="gini = 0.0\nsamples = 2\nvalue = [3, 0]\nclass = <=50K", fillcolor="#e58139"] ;
127 -> 139 ;
140 [label="gini = 0.0\nsamples = 1\nvalue = [1, 0]\nclass = <=50K", fillcolor="#e58139"] ;
126 -> 140 ;
141 [label="gini = 0.0\nsamples = 12\nvalue = [19, 0]\nclass = <=50K", fillcolor="#e58139"] ;
125 -> 141 ;
142 [label="gini = 0.0\nsamples = 3\nvalue = [6, 0]\nclass = <=50K", fillcolor="#e58139"] ;
124 -> 142 ;
143 [label="occupation_ Handlers-cleaners <= 0.5\ngini = 0.198\nsamples = 7\nvalue = [8, 1]\nclass = <=50K", fillcolor="#e89152"] ;
123 -> 143 ;
144 [label="occupation_ Exec-managerial <= 0.5\ngini = 0.245\nsamples = 6\nvalue = [6, 1]\nclass = <=50K", fillcolor="#e9965a"] ;
143 -> 144 ;
145 [label="gini = 0.0\nsamples = 2\nvalue = [3, 0]\nclass = <=50K", fillcolor="#e58139"] ;
144 -> 145 ;
146 [label="gini = 0.375\nsamples = 4\nvalue = [3, 1]\nclass = <=50K", fillcolor="#eeab7b"] ;
144 -> 146 ;
147 [label="gini = 0.0\nsamples = 1\nvalue = [2, 0]\nclass = <=50K", fillcolor="#e58139"] ;
143 -> 147 ;
148 [label="gini = 0.0\nsamples = 1\nvalue = [1, 0]\nclass = <=50K", fillcolor="#e58139"] ;
122 -> 148 ;
149 [label="gini = 0.0\nsamples = 1\nvalue = [2, 0]\nclass = <=50K", fillcolor="#e58139"] ;
121 -> 149 ;
150 [label="gini = 0.0\nsamples = 8\nvalue = [16, 0]\nclass = <=50K", fillcolor="#e58139"] ;
120 -> 150 ;
151 [label="gini = 0.0\nsamples = 7\nvalue = [11, 0]\nclass = <=50K", fillcolor="#e58139"] ;
105 -> 151 ;
152 [label="gini = 0.0\nsamples = 3\nvalue = [8, 0]\nclass = <=50K", fillcolor="#e58139"] ;
104 -> 152 ;
153 [label="gini = 0.0\nsamples = 23\nvalue = [37, 0]\nclass = <=50K", fillcolor="#e58139"] ;
101 -> 153 ;
154 [label="occupation_ ? <= 0.5\ngini = 0.291\nsamples = 19\nvalue = [28, 6]\nclass = <=50K", fillcolor="#eb9c63"] ;
100 -> 154 ;
155 [label="education_ HS-grad <= 0.5\ngini = 0.346\nsamples = 17\nvalue = [21, 6]\nclass = <=50K", fillcolor="#eca572"] ;
154 -> 155 ;
156 [label="occupation_ Exec-managerial <= 0.5\ngini = 0.444\nsamples = 12\nvalue = [12, 6]\nclass = <=50K", fillcolor="#f2c09c"] ;
155 -> 156 ;
157 [label="occupation_ Other-service <= 0.5\ngini = 0.43\nsamples = 10\nvalue = [11, 5]\nclass = <=50K", fillcolor="#f1ba93"] ;
156 -> 157 ;
158 [label="education_ Bachelors <= 0.5\ngini = 0.494\nsamples = 6\nvalue = [4, 5]\nclass = >50K", fillcolor="#d7ebfa"] ;
157 -> 158 ;
159 [label="workclass_ Self-emp-not-inc <= 0.5\ngini = 0.469\nsamples = 5\nvalue = [3, 5]\nclass = >50K", fillcolor="#b0d8f5"] ;
158 -> 159 ;
160 [label="education_ Assoc-acdm <= 0.5\ngini = 0.278\nsamples = 4\nvalue = [1, 5]\nclass = >50K", fillcolor="#61b1ea"] ;
159 -> 160 ;
161 [label="occupation_ Handlers-cleaners <= 0.5\ngini = 0.375\nsamples = 3\nvalue = [1, 3]\nclass = >50K", fillcolor="#7bbeee"] ;
160 -> 161 ;
162 [label="occupation_ Sales <= 0.5\ngini = 0.444\nsamples = 2\nvalue = [1, 2]\nclass = >50K", fillcolor="#9ccef2"] ;
161 -> 162 ;
163 [label="gini = 0.0\nsamples = 1\nvalue = [1, 0]\nclass = <=50K", fillcolor="#e58139"] ;
162 -> 163 ;
164 [label="gini = 0.0\nsamples = 1\nvalue = [0, 2]\nclass = >50K", fillcolor="#399de5"] ;
162 -> 164 ;
165 [label="gini = 0.0\nsamples = 1\nvalue = [0, 1]\nclass = >50K", fillcolor="#399de5"] ;
161 -> 165 ;
166 [label="gini = 0.0\nsamples = 1\nvalue = [0, 2]\nclass = >50K", fillcolor="#399de5"] ;
160 -> 166 ;
167 [label="gini = 0.0\nsamples = 1\nvalue = [2, 0]\nclass = <=50K", fillcolor="#e58139"] ;
159 -> 167 ;
168 [label="gini = 0.0\nsamples = 1\nvalue = [1, 0]\nclass = <=50K", fillcolor="#e58139"] ;
158 -> 168 ;
169 [label="gini = 0.0\nsamples = 4\nvalue = [7, 0]\nclass = <=50K", fillcolor="#e58139"] ;
157 -> 169 ;
170 [label="gini = 0.5\nsamples = 2\nvalue = [1, 1]\nclass = <=50K", fillcolor="#ffffff"] ;
156 -> 170 ;
171 [label="gini = 0.0\nsamples = 5\nvalue = [9, 0]\nclass = <=50K", fillcolor="#e58139"] ;
155 -> 171 ;
172 [label="gini = 0.0\nsamples = 2\nvalue = [7, 0]\nclass = <=50K", fillcolor="#e58139"] ;
154 -> 172 ;
173 [label="education_ Assoc-voc <= 0.5\ngini = 0.021\nsamples = 538\nvalue = [855, 9]\nclass = <=50K", fillcolor="#e5823b"] ;
99 -> 173 ;
174 [label="marital-status_ Widowed <= 0.5\ngini = 0.015\nsamples = 512\nvalue = [801, 6]\nclass = <=50K", fillcolor="#e5823a"] ;
173 -> 174 ;
175 [label="race_ Black <= 0.5\ngini = 0.006\nsamples = 395\nvalue = [622, 2]\nclass = <=50K", fillcolor="#e5813a"] ;
174 -> 175 ;
176 [label="gini = 0.0\nsamples = 227\nvalue = [359, 0]\nclass = <=50K", fillcolor="#e58139"] ;
175 -> 176 ;
177 [label="education_ Bachelors <= 0.5\ngini = 0.015\nsamples = 168\nvalue = [263, 2]\nclass = <=50K", fillcolor="#e5823b"] ;
175 -> 177 ;
178 [label="gini = 0.0\nsamples = 160\nvalue = [250, 0]\nclass = <=50K", fillcolor="#e58139"] ;
177 -> 178 ;
179 [label="occupation_ Exec-managerial <= 0.5\ngini = 0.231\nsamples = 8\nvalue = [13, 2]\nclass = <=50K", fillcolor="#e99457"] ;
177 -> 179 ;
180 [label="marital-status_ Separated <= 0.5\ngini = 0.408\nsamples = 4\nvalue = [5, 2]\nclass = <=50K", fillcolor="#efb388"] ;
179 -> 180 ;
181 [label="occupation_ Sales <= 0.5\ngini = 0.444\nsamples = 2\nvalue = [1, 2]\nclass = >50K", fillcolor="#9ccef2"] ;
180 -> 181 ;
182 [label="gini = 0.0\nsamples = 1\nvalue = [1, 0]\nclass = <=50K", fillcolor="#e58139"] ;
181 -> 182 ;
183 [label="gini = 0.0\nsamples = 1\nvalue = [0, 2]\nclass = >50K", fillcolor="#399de5"] ;
181 -> 183 ;
184 [label="gini = 0.0\nsamples = 2\nvalue = [4, 0]\nclass = <=50K", fillcolor="#e58139"] ;
180 -> 184 ;
185 [label="gini = 0.0\nsamples = 4\nvalue = [8, 0]\nclass = <=50K", fillcolor="#e58139"] ;
179 -> 185 ;
186 [label="workclass_ ? <= 0.5\ngini = 0.043\nsamples = 117\nvalue = [179, 4]\nclass = <=50K", fillcolor="#e6843d"] ;
174 -> 186 ;
187 [label="education_ Some-college <= 0.5\ngini = 0.025\nsamples = 100\nvalue = [154, 2]\nclass = <=50K", fillcolor="#e5833c"] ;
186 -> 187 ;
188 [label="education_ Bachelors <= 0.5\ngini = 0.016\nsamples = 82\nvalue = [127, 1]\nclass = <=50K", fillcolor="#e5823b"] ;
187 -> 188 ;
189 [label="gini = 0.0\nsamples = 75\nvalue = [118, 0]\nclass = <=50K", fillcolor="#e58139"] ;
188 -> 189 ;
190 [label="race_ White <= 0.5\ngini = 0.18\nsamples = 7\nvalue = [9, 1]\nclass = <=50K", fillcolor="#e88f4f"] ;
188 -> 190 ;
191 [label="gini = 0.0\nsamples = 1\nvalue = [2, 0]\nclass = <=50K", fillcolor="#e58139"] ;
190 -> 191 ;
192 [label="occupation_ Priv-house-serv <= 0.5\ngini = 0.219\nsamples = 6\nvalue = [7, 1]\nclass = <=50K", fillcolor="#e99355"] ;
190 -> 192 ;
193 [label="gini = 0.0\nsamples = 5\nvalue = [7, 0]\nclass = <=50K", fillcolor="#e58139"] ;
192 -> 193 ;
194 [label="gini = 0.0\nsamples = 1\nvalue = [0, 1]\nclass = >50K", fillcolor="#399de5"] ;
192 -> 194 ;
195 [label="occupation_ Priv-house-serv <= 0.5\ngini = 0.069\nsamples = 18\nvalue = [27, 1]\nclass = <=50K", fillcolor="#e68640"] ;
187 -> 195 ;
196 [label="race_ Black <= 0.5\ngini = 0.071\nsamples = 17\nvalue = [26, 1]\nclass = <=50K", fillcolor="#e68641"] ;
195 -> 196 ;
197 [label="occupation_ Machine-op-inspct <= 0.5\ngini = 0.083\nsamples = 14\nvalue = [22, 1]\nclass = <=50K", fillcolor="#e68742"] ;
196 -> 197 ;
198 [label="occupation_ Other-service <= 0.5\ngini = 0.1\nsamples = 12\nvalue = [18, 1]\nclass = <=50K", fillcolor="#e68844"] ;
197 -> 198 ;
199 [label="occupation_ Sales <= 0.5\ngini = 0.124\nsamples = 10\nvalue = [14, 1]\nclass = <=50K", fillcolor="#e78a47"] ;
198 -> 199 ;
200 [label="gini = 0.0\nsamples = 6\nvalue = [10, 0]\nclass = <=50K", fillcolor="#e58139"] ;
199 -> 200 ;
201 [label="gini = 0.32\nsamples = 4\nvalue = [4, 1]\nclass = <=50K", fillcolor="#eca06a"] ;
199 -> 201 ;
202 [label="gini = 0.0\nsamples = 2\nvalue = [4, 0]\nclass = <=50K", fillcolor="#e58139"] ;
198 -> 202 ;
203 [label="gini = 0.0\nsamples = 2\nvalue = [4, 0]\nclass = <=50K", fillcolor="#e58139"] ;
197 -> 203 ;
204 [label="gini = 0.0\nsamples = 3\nvalue = [4, 0]\nclass = <=50K", fillcolor="#e58139"] ;
196 -> 204 ;
205 [label="gini = 0.0\nsamples = 1\nvalue = [1, 0]\nclass = <=50K", fillcolor="#e58139"] ;
195 -> 205 ;
206 [label="race_ Black <= 0.5\ngini = 0.137\nsamples = 17\nvalue = [25, 2]\nclass = <=50K", fillcolor="#e78b49"] ;
186 -> 206 ;
207 [label="race_ Asian-Pac-Islander <= 0.5\ngini = 0.153\nsamples = 14\nvalue = [22, 2]\nclass = <=50K", fillcolor="#e78c4b"] ;
206 -> 207 ;
208 [label="education_ Some-college <= 0.5\ngini = 0.165\nsamples = 13\nvalue = [20, 2]\nclass = <=50K", fillcolor="#e88e4d"] ;
207 -> 208 ;
209 [label="education_ 5th-6th <= 0.5\ngini = 0.188\nsamples = 11\nvalue = [17, 2]\nclass = <=50K", fillcolor="#e89050"] ;
208 -> 209 ;
210 [label="education_ Bachelors <= 0.5\ngini = 0.208\nsamples = 10\nvalue = [15, 2]\nclass = <=50K", fillcolor="#e89253"] ;
209 -> 210 ;
211 [label="gini = 0.0\nsamples = 9\nvalue = [15, 0]\nclass = <=50K", fillcolor="#e58139"] ;
210 -> 211 ;
212 [label="gini = 0.0\nsamples = 1\nvalue = [0, 2]\nclass = >50K", fillcolor="#399de5"] ;
210 -> 212 ;
213 [label="gini = 0.0\nsamples = 1\nvalue = [2, 0]\nclass = <=50K", fillcolor="#e58139"] ;
209 -> 213 ;
214 [label="gini = 0.0\nsamples = 2\nvalue = [3, 0]\nclass = <=50K", fillcolor="#e58139"] ;
208 -> 214 ;
215 [label="gini = 0.0\nsamples = 1\nvalue = [2, 0]\nclass = <=50K", fillcolor="#e58139"] ;
207 -> 215 ;
216 [label="gini = 0.0\nsamples = 3\nvalue = [3, 0]\nclass = <=50K", fillcolor="#e58139"] ;
206 -> 216 ;
217 [label="workclass_ Private <= 0.5\ngini = 0.1\nsamples = 26\nvalue = [54, 3]\nclass = <=50K", fillcolor="#e68844"] ;
173 -> 217 ;
218 [label="gini = 0.0\nsamples = 5\nvalue = [12, 0]\nclass = <=50K", fillcolor="#e58139"] ;
217 -> 218 ;
219 [label="marital-status_ Separated <= 0.5\ngini = 0.124\nsamples = 21\nvalue = [42, 3]\nclass = <=50K", fillcolor="#e78a47"] ;
217 -> 219 ;
220 [label="race_ Asian-Pac-Islander <= 0.5\ngini = 0.165\nsamples = 14\nvalue = [30, 3]\nclass = <=50K", fillcolor="#e88e4d"] ;
219 -> 220 ;
221 [label="gini = 0.0\nsamples = 13\nvalue = [30, 0]\nclass = <=50K", fillcolor="#e58139"] ;
220 -> 221 ;
222 [label="gini = 0.0\nsamples = 1\nvalue = [0, 3]\nclass = >50K", fillcolor="#399de5"] ;
220 -> 222 ;
223 [label="gini = 0.0\nsamples = 7\nvalue = [12, 0]\nclass = <=50K", fillcolor="#e58139"] ;
219 -> 223 ;
224 [label="education_ Some-college <= 0.5\ngini = 0.375\nsamples = 5\nvalue = [6, 2]\nclass = <=50K", fillcolor="#eeab7b"] ;
14 -> 224 ;
225 [label="occupation_ Other-service <= 0.5\ngini = 0.245\nsamples = 4\nvalue = [6, 1]\nclass = <=50K", fillcolor="#e9965a"] ;
224 -> 225 ;
226 [label="gini = 0.0\nsamples = 2\nvalue = [4, 0]\nclass = <=50K", fillcolor="#e58139"] ;
225 -> 226 ;
227 [label="gini = 0.444\nsamples = 2\nvalue = [2, 1]\nclass = <=50K", fillcolor="#f2c09c"] ;
225 -> 227 ;
228 [label="gini = 0.0\nsamples = 1\nvalue = [0, 1]\nclass = >50K", fillcolor="#399de5"] ;
224 -> 228 ;
229 [label="relationship_ Own-child <= 0.5\ngini = 0.084\nsamples = 59\nvalue = [87, 4]\nclass = <=50K", fillcolor="#e68742"] ;
13 -> 229 ;
230 [label="gini = 0.0\nsamples = 17\nvalue = [26, 0]\nclass = <=50K", fillcolor="#e58139"] ;
229 -> 230 ;
231 [label="race_ Other <= 0.5\ngini = 0.116\nsamples = 42\nvalue = [61, 4]\nclass = <=50K", fillcolor="#e78946"] ;
229 -> 231 ;
232 [label="native-country_ United-States <= 0.5\ngini = 0.117\nsamples = 41\nvalue = [60, 4]\nclass = <=50K", fillcolor="#e78946"] ;
231 -> 232 ;
233 [label="gini = 0.0\nsamples = 5\nvalue = [11, 0]\nclass = <=50K", fillcolor="#e58139"] ;
232 -> 233 ;
234 [label="workclass_ Private <= 0.5\ngini = 0.14\nsamples = 36\nvalue = [49, 4]\nclass = <=50K", fillcolor="#e78b49"] ;
232 -> 234 ;
235 [label="workclass_ Self-emp-not-inc <= 0.5\ngini = 0.245\nsamples = 20\nvalue = [24, 4]\nclass = <=50K", fillcolor="#e9965a"] ;
234 -> 235 ;
236 [label="gender_ Female <= 0.5\ngini = 0.252\nsamples = 19\nvalue = [23, 4]\nclass = <=50K", fillcolor="#ea975b"] ;
235 -> 236 ;
237 [label="workclass_ Local-gov <= 0.5\ngini = 0.236\nsamples = 14\nvalue = [19, 3]\nclass = <=50K", fillcolor="#e99558"] ;
236 -> 237 ;
238 [label="gini = 0.0\nsamples = 3\nvalue = [6, 0]\nclass = <=50K", fillcolor="#e58139"] ;
237 -> 238 ;
239 [label="education_ Bachelors <= 0.5\ngini = 0.305\nsamples = 11\nvalue = [13, 3]\nclass = <=50K", fillcolor="#eb9e67"] ;
237 -> 239 ;
240 [label="education_ Assoc-voc <= 0.5\ngini = 0.337\nsamples = 10\nvalue = [11, 3]\nclass = <=50K", fillcolor="#eca36f"] ;
239 -> 240 ;
241 [label="education_ HS-grad <= 0.5\ngini = 0.355\nsamples = 9\nvalue = [10, 3]\nclass = <=50K", fillcolor="#eda774"] ;
240 -> 241 ;
242 [label="education_ 11th <= 0.5\ngini = 0.49\nsamples = 5\nvalue = [4, 3]\nclass = <=50K", fillcolor="#f8e0ce"] ;
241 -> 242 ;
243 [label="gini = 0.48\nsamples = 3\nvalue = [2, 3]\nclass = >50K", fillcolor="#bddef6"] ;
242 -> 243 ;
244 [label="gini = 0.0\nsamples = 2\nvalue = [2, 0]\nclass = <=50K", fillcolor="#e58139"] ;
242 -> 244 ;
245 [label="gini = 0.0\nsamples = 4\nvalue = [6, 0]\nclass = <=50K", fillcolor="#e58139"] ;
241 -> 245 ;
246 [label="gini = 0.0\nsamples = 1\nvalue = [1, 0]\nclass = <=50K", fillcolor="#e58139"] ;
240 -> 246 ;
247 [label="gini = 0.0\nsamples = 1\nvalue = [2, 0]\nclass = <=50K", fillcolor="#e58139"] ;
239 -> 247 ;
248 [label="education_ 10th <= 0.5\ngini = 0.32\nsamples = 5\nvalue = [4, 1]\nclass = <=50K", fillcolor="#eca06a"] ;
236 -> 248 ;
249 [label="education_ Some-college <= 0.5\ngini = 0.375\nsamples = 4\nvalue = [3, 1]\nclass = <=50K", fillcolor="#eeab7b"] ;
248 -> 249 ;
250 [label="gini = 0.0\nsamples = 1\nvalue = [1, 0]\nclass = <=50K", fillcolor="#e58139"] ;
249 -> 250 ;
251 [label="race_ Asian-Pac-Islander <= 0.5\ngini = 0.444\nsamples = 3\nvalue = [2, 1]\nclass = <=50K", fillcolor="#f2c09c"] ;
249 -> 251 ;
252 [label="gini = 0.5\nsamples = 2\nvalue = [1, 1]\nclass = <=50K", fillcolor="#ffffff"] ;
251 -> 252 ;
253 [label="gini = 0.0\nsamples = 1\nvalue = [1, 0]\nclass = <=50K", fillcolor="#e58139"] ;
251 -> 253 ;
254 [label="gini = 0.0\nsamples = 1\nvalue = [1, 0]\nclass = <=50K", fillcolor="#e58139"] ;
248 -> 254 ;
255 [label="gini = 0.0\nsamples = 1\nvalue = [1, 0]\nclass = <=50K", fillcolor="#e58139"] ;
235 -> 255 ;
256 [label="gini = 0.0\nsamples = 16\nvalue = [25, 0]\nclass = <=50K", fillcolor="#e58139"] ;
234 -> 256 ;
257 [label="gini = 0.0\nsamples = 1\nvalue = [1, 0]\nclass = <=50K", fillcolor="#e58139"] ;
231 -> 257 ;
258 [label="relationship_ Own-child <= 0.5\ngini = 0.062\nsamples = 137\nvalue = [212, 7]\nclass = <=50K", fillcolor="#e68540"] ;
12 -> 258 ;
259 [label="native-country_ Outlying-US(Guam-USVI-etc) <= 0.5\ngini = 0.153\nsamples = 52\nvalue = [77, 7]\nclass = <=50K", fillcolor="#e78c4b"] ;
258 -> 259 ;
260 [label="workclass_ Local-gov <= 0.5\ngini = 0.158\nsamples = 51\nvalue = [74, 7]\nclass = <=50K", fillcolor="#e78d4c"] ;
259 -> 260 ;
261 [label="workclass_ Self-emp-not-inc <= 0.5\ngini = 0.169\nsamples = 47\nvalue = [68, 7]\nclass = <=50K", fillcolor="#e88e4d"] ;
260 -> 261 ;
262 [label="relationship_ Other-relative <= 0.5\ngini = 0.149\nsamples = 46\nvalue = [68, 6]\nclass = <=50K", fillcolor="#e78c4a"] ;
261 -> 262 ;
263 [label="education_ 11th <= 0.5\ngini = 0.183\nsamples = 36\nvalue = [53, 6]\nclass = <=50K", fillcolor="#e88f4f"] ;
262 -> 263 ;
264 [label="education_ Some-college <= 0.5\ngini = 0.194\nsamples = 34\nvalue = [49, 6]\nclass = <=50K", fillcolor="#e89051"] ;
263 -> 264 ;
265 [label="gender_ Male <= 0.5\ngini = 0.194\nsamples = 28\nvalue = [41, 5]\nclass = <=50K", fillcolor="#e89051"] ;
264 -> 265 ;
266 [label="gini = 0.0\nsamples = 7\nvalue = [10, 0]\nclass = <=50K", fillcolor="#e58139"] ;
265 -> 266 ;
267 [label="education_ 9th <= 0.5\ngini = 0.239\nsamples = 21\nvalue = [31, 5]\nclass = <=50K", fillcolor="#e99559"] ;
265 -> 267 ;
268 [label="education_ HS-grad <= 0.5\ngini = 0.202\nsamples = 20\nvalue = [31, 4]\nclass = <=50K", fillcolor="#e89153"] ;
267 -> 268 ;
269 [label="education_ Bachelors <= 0.5\ngini = 0.32\nsamples = 5\nvalue = [8, 2]\nclass = <=50K", fillcolor="#eca06a"] ;
268 -> 269 ;
270 [label="marital-status_ Never-married <= 0.5\ngini = 0.375\nsamples = 4\nvalue = [6, 2]\nclass = <=50K", fillcolor="#eeab7b"] ;
269 -> 270 ;
271 [label="gini = 0.0\nsamples = 2\nvalue = [4, 0]\nclass = <=50K", fillcolor="#e58139"] ;
270 -> 271 ;
272 [label="gini = 0.5\nsamples = 2\nvalue = [2, 2]\nclass = <=50K", fillcolor="#ffffff"] ;
270 -> 272 ;
273 [label="gini = 0.0\nsamples = 1\nvalue = [2, 0]\nclass = <=50K", fillcolor="#e58139"] ;
269 -> 273 ;
274 [label="marital-status_ Married-spouse-absent <= 0.5\ngini = 0.147\nsamples = 15\nvalue = [23, 2]\nclass = <=50K", fillcolor="#e78c4a"] ;
268 -> 274 ;
275 [label="race_ White <= 0.5\ngini = 0.153\nsamples = 14\nvalue = [22, 2]\nclass = <=50K", fillcolor="#e78c4b"] ;
274 -> 275 ;
276 [label="race_ Asian-Pac-Islander <= 0.5\ngini = 0.32\nsamples = 4\nvalue = [4, 1]\nclass = <=50K", fillcolor="#eca06a"] ;
275 -> 276 ;
277 [label="gini = 0.0\nsamples = 3\nvalue = [4, 0]\nclass = <=50K", fillcolor="#e58139"] ;
276 -> 277 ;
278 [label="gini = 0.0\nsamples = 1\nvalue = [0, 1]\nclass = >50K", fillcolor="#399de5"] ;
276 -> 278 ;
279 [label="marital-status_ Never-married <= 0.5\ngini = 0.1\nsamples = 10\nvalue = [18, 1]\nclass = <=50K", fillcolor="#e68844"] ;
275 -> 279 ;
280 [label="marital-status_ Separated <= 0.5\ngini = 0.219\nsamples = 5\nvalue = [7, 1]\nclass = <=50K", fillcolor="#e99355"] ;
279 -> 280 ;
281 [label="gini = 0.375\nsamples = 3\nvalue = [3, 1]\nclass = <=50K", fillcolor="#eeab7b"] ;
280 -> 281 ;
282 [label="gini = 0.0\nsamples = 2\nvalue = [4, 0]\nclass = <=50K", fillcolor="#e58139"] ;
280 -> 282 ;
283 [label="gini = 0.0\nsamples = 5\nvalue = [11, 0]\nclass = <=50K", fillcolor="#e58139"] ;
279 -> 283 ;
284 [label="gini = 0.0\nsamples = 1\nvalue = [1, 0]\nclass = <=50K", fillcolor="#e58139"] ;
274 -> 284 ;
285 [label="gini = 0.0\nsamples = 1\nvalue = [0, 1]\nclass = >50K", fillcolor="#399de5"] ;
267 -> 285 ;
286 [label="marital-status_ Never-married <= 0.5\ngini = 0.198\nsamples = 6\nvalue = [8, 1]\nclass = <=50K", fillcolor="#e89152"] ;
264 -> 286 ;
287 [label="marital-status_ Separated <= 0.5\ngini = 0.444\nsamples = 2\nvalue = [2, 1]\nclass = <=50K", fillcolor="#f2c09c"] ;
286 -> 287 ;
288 [label="gini = 0.0\nsamples = 1\nvalue = [2, 0]\nclass = <=50K", fillcolor="#e58139"] ;
287 -> 288 ;
289 [label="gini = 0.0\nsamples = 1\nvalue = [0, 1]\nclass = >50K", fillcolor="#399de5"] ;
287 -> 289 ;
290 [label="gini = 0.0\nsamples = 4\nvalue = [6, 0]\nclass = <=50K", fillcolor="#e58139"] ;
286 -> 290 ;
291 [label="gini = 0.0\nsamples = 2\nvalue = [4, 0]\nclass = <=50K", fillcolor="#e58139"] ;
263 -> 291 ;
292 [label="gini = 0.0\nsamples = 10\nvalue = [15, 0]\nclass = <=50K", fillcolor="#e58139"] ;
262 -> 292 ;
293 [label="gini = 0.0\nsamples = 1\nvalue = [0, 1]\nclass = >50K", fillcolor="#399de5"] ;
261 -> 293 ;
294 [label="gini = 0.0\nsamples = 4\nvalue = [6, 0]\nclass = <=50K", fillcolor="#e58139"] ;
260 -> 294 ;
295 [label="gini = 0.0\nsamples = 1\nvalue = [3, 0]\nclass = <=50K", fillcolor="#e58139"] ;
259 -> 295 ;
296 [label="gini = 0.0\nsamples = 85\nvalue = [135, 0]\nclass = <=50K", fillcolor="#e58139"] ;
258 -> 296 ;
297 [label="gini = 0.0\nsamples = 1\nvalue = [0, 1]\nclass = >50K", fillcolor="#399de5"] ;
11 -> 297 ;
298 [label="workclass_ Self-emp-not-inc <= 0.5\ngini = 0.085\nsamples = 655\nvalue = [994, 46]\nclass = <=50K", fillcolor="#e68742"] ;
10 -> 298 ;
299 [label="education_ Doctorate <= 0.5\ngini = 0.07\nsamples = 618\nvalue = [954, 36]\nclass = <=50K", fillcolor="#e68640"] ;
298 -> 299 ;
300 [label="education_ Bachelors <= 0.5\ngini = 0.066\nsamples = 617\nvalue = [954, 34]\nclass = <=50K", fillcolor="#e68540"] ;
299 -> 300 ;
301 [label="relationship_ Other-relative <= 0.5\ngini = 0.044\nsamples = 562\nvalue = [877, 20]\nclass = <=50K", fillcolor="#e6843e"] ;
300 -> 301 ;
302 [label="occupation_ Exec-managerial <= 0.5\ngini = 0.039\nsamples = 527\nvalue = [827, 17]\nclass = <=50K", fillcolor="#e6843d"] ;
301 -> 302 ;
303 [label="native-country_ Puerto-Rico <= 0.5\ngini = 0.033\nsamples = 445\nvalue = [703, 12]\nclass = <=50K", fillcolor="#e5833c"] ;
302 -> 303 ;
304 [label="education_ 11th <= 0.5\ngini = 0.028\nsamples = 441\nvalue = [698, 10]\nclass = <=50K", fillcolor="#e5833c"] ;
303 -> 304 ;
305 [label="native-country_ United-States <= 0.5\ngini = 0.03\nsamples = 414\nvalue = [645, 10]\nclass = <=50K", fillcolor="#e5833c"] ;
304 -> 305 ;
306 [label="gini = 0.0\nsamples = 32\nvalue = [54, 0]\nclass = <=50K", fillcolor="#e58139"] ;
305 -> 306 ;
307 [label="gender_ Female <= 0.5\ngini = 0.033\nsamples = 382\nvalue = [591, 10]\nclass = <=50K", fillcolor="#e5833c"] ;
305 -> 307 ;
308 [label="relationship_ Unmarried <= 0.5\ngini = 0.067\nsamples = 109\nvalue = [167, 6]\nclass = <=50K", fillcolor="#e68640"] ;
307 -> 308 ;
309 [label="gini = 0.0\nsamples = 52\nvalue = [83, 0]\nclass = <=50K", fillcolor="#e58139"] ;
308 -> 309 ;
310 [label="occupation_ Handlers-cleaners <= 0.5\ngini = 0.124\nsamples = 57\nvalue = [84, 6]\nclass = <=50K", fillcolor="#e78a47"] ;
308 -> 310 ;
311 [label="occupation_ Transport-moving <= 0.5\ngini = 0.134\nsamples = 53\nvalue = [77, 6]\nclass = <=50K", fillcolor="#e78b48"] ;
310 -> 311 ;
312 [label="education_ Some-college <= 0.5\ngini = 0.157\nsamples = 43\nvalue = [64, 6]\nclass = <=50K", fillcolor="#e78d4c"] ;
311 -> 312 ;
313 [label="education_ Assoc-acdm <= 0.5\ngini = 0.08\nsamples = 30\nvalue = [46, 2]\nclass = <=50K", fillcolor="#e68642"] ;
312 -> 313 ;
314 [label="race_ Amer-Indian-Eskimo <= 0.5\ngini = 0.083\nsamples = 29\nvalue = [44, 2]\nclass = <=50K", fillcolor="#e68742"] ;
313 -> 314 ;
315 [label="education_ 7th-8th <= 0.5\ngini = 0.093\nsamples = 28\nvalue = [39, 2]\nclass = <=50K", fillcolor="#e68743"] ;
314 -> 315 ;
316 [label="occupation_ Other-service <= 0.5\ngini = 0.097\nsamples = 26\nvalue = [37, 2]\nclass = <=50K", fillcolor="#e68844"] ;
315 -> 316 ;
317 [label="race_ Asian-Pac-Islander <= 0.5\ngini = 0.121\nsamples = 20\nvalue = [29, 2]\nclass = <=50K", fillcolor="#e78a47"] ;
316 -> 317 ;
318 [label="race_ White <= 0.5\ngini = 0.124\nsamples = 19\nvalue = [28, 2]\nclass = <=50K", fillcolor="#e78a47"] ;
317 -> 318 ;
319 [label="gini = 0.0\nsamples = 4\nvalue = [7, 0]\nclass = <=50K", fillcolor="#e58139"] ;
318 -> 319 ;
320 [label="workclass_ Private <= 0.5\ngini = 0.159\nsamples = 15\nvalue = [21, 2]\nclass = <=50K", fillcolor="#e78d4c"] ;
318 -> 320 ;
321 [label="gini = 0.0\nsamples = 2\nvalue = [4, 0]\nclass = <=50K", fillcolor="#e58139"] ;
320 -> 321 ;
322 [label="education_ 5th-6th <= 0.5\ngini = 0.188\nsamples = 13\nvalue = [17, 2]\nclass = <=50K", fillcolor="#e89050"] ;
320 -> 322 ;
323 [label="occupation_ Farming-fishing <= 0.5\ngini = 0.198\nsamples = 12\nvalue = [16, 2]\nclass = <=50K", fillcolor="#e89152"] ;
322 -> 323 ;
324 [label="occupation_ Sales <= 0.5\ngini = 0.208\nsamples = 11\nvalue = [15, 2]\nclass = <=50K", fillcolor="#e89253"] ;
323 -> 324 ;
325 [label="occupation_ Tech-support <= 0.5\ngini = 0.245\nsamples = 10\nvalue = [12, 2]\nclass = <=50K", fillcolor="#e9965a"] ;
324 -> 325 ;
326 [label="gini = 0.142\nsamples = 9\nvalue = [12, 1]\nclass = <=50K", fillcolor="#e78c49"] ;
325 -> 326 ;
327 [label="gini = 0.0\nsamples = 1\nvalue = [0, 1]\nclass = >50K", fillcolor="#399de5"] ;
325 -> 327 ;
328 [label="gini = 0.0\nsamples = 1\nvalue = [3, 0]\nclass = <=50K", fillcolor="#e58139"] ;
324 -> 328 ;
329 [label="gini = 0.0\nsamples = 1\nvalue = [1, 0]\nclass = <=50K", fillcolor="#e58139"] ;
323 -> 329 ;
330 [label="gini = 0.0\nsamples = 1\nvalue = [1, 0]\nclass = <=50K", fillcolor="#e58139"] ;
322 -> 330 ;
331 [label="gini = 0.0\nsamples = 1\nvalue = [1, 0]\nclass = <=50K", fillcolor="#e58139"] ;
317 -> 331 ;
332 [label="gini = 0.0\nsamples = 6\nvalue = [8, 0]\nclass = <=50K", fillcolor="#e58139"] ;
316 -> 332 ;
333 [label="gini = 0.0\nsamples = 2\nvalue = [2, 0]\nclass = <=50K", fillcolor="#e58139"] ;
315 -> 333 ;
334 [label="gini = 0.0\nsamples = 1\nvalue = [5, 0]\nclass = <=50K", fillcolor="#e58139"] ;
314 -> 334 ;
335 [label="gini = 0.0\nsamples = 1\nvalue = [2, 0]\nclass = <=50K", fillcolor="#e58139"] ;
313 -> 335 ;
336 [label="occupation_ Other-service <= 0.5\ngini = 0.298\nsamples = 13\nvalue = [18, 4]\nclass = <=50K", fillcolor="#eb9d65"] ;
312 -> 336 ;
337 [label="occupation_ Sales <= 0.5\ngini = 0.332\nsamples = 12\nvalue = [15, 4]\nclass = <=50K", fillcolor="#eca36e"] ;
336 -> 337 ;
338 [label="workclass_ Local-gov <= 0.5\ngini = 0.26\nsamples = 8\nvalue = [11, 2]\nclass = <=50K", fillcolor="#ea985d"] ;
337 -> 338 ;
339 [label="occupation_ ? <= 0.5\ngini = 0.32\nsamples = 7\nvalue = [8, 2]\nclass = <=50K", fillcolor="#eca06a"] ;
338 -> 339 ;
340 [label="race_ Amer-Indian-Eskimo <= 0.5\ngini = 0.375\nsamples = 5\nvalue = [6, 2]\nclass = <=50K", fillcolor="#eeab7b"] ;
339 -> 340 ;
341 [label="gini = 0.408\nsamples = 4\nvalue = [5, 2]\nclass = <=50K", fillcolor="#efb388"] ;
340 -> 341 ;
342 [label="gini = 0.0\nsamples = 1\nvalue = [1, 0]\nclass = <=50K", fillcolor="#e58139"] ;
340 -> 342 ;
343 [label="gini = 0.0\nsamples = 2\nvalue = [2, 0]\nclass = <=50K", fillcolor="#e58139"] ;
339 -> 343 ;
344 [label="gini = 0.0\nsamples = 1\nvalue = [3, 0]\nclass = <=50K", fillcolor="#e58139"] ;
338 -> 344 ;
345 [label="gini = 0.444\nsamples = 4\nvalue = [4, 2]\nclass = <=50K", fillcolor="#f2c09c"] ;
337 -> 345 ;
346 [label="gini = 0.0\nsamples = 1\nvalue = [3, 0]\nclass = <=50K", fillcolor="#e58139"] ;
336 -> 346 ;
347 [label="gini = 0.0\nsamples = 10\nvalue = [13, 0]\nclass = <=50K", fillcolor="#e58139"] ;
311 -> 347 ;
348 [label="gini = 0.0\nsamples = 4\nvalue = [7, 0]\nclass = <=50K", fillcolor="#e58139"] ;
310 -> 348 ;
349 [label="race_ Amer-Indian-Eskimo <= 0.5\ngini = 0.019\nsamples = 273\nvalue = [424, 4]\nclass = <=50K", fillcolor="#e5823b"] ;
307 -> 349 ;
350 [label="race_ White <= 0.5\ngini = 0.014\nsamples = 269\nvalue = [421, 3]\nclass = <=50K", fillcolor="#e5823a"] ;
349 -> 350 ;
351 [label="gini = 0.0\nsamples = 54\nvalue = [84, 0]\nclass = <=50K", fillcolor="#e58139"] ;
350 -> 351 ;
352 [label="occupation_ ? <= 0.5\ngini = 0.017\nsamples = 215\nvalue = [337, 3]\nclass = <=50K", fillcolor="#e5823b"] ;
350 -> 352 ;
353 [label="relationship_ Own-child <= 0.5\ngini = 0.012\nsamples = 203\nvalue = [319, 2]\nclass = <=50K", fillcolor="#e5823a"] ;
352 -> 353 ;
354 [label="occupation_ Handlers-cleaners <= 0.5\ngini = 0.015\nsamples = 168\nvalue = [256, 2]\nclass = <=50K", fillcolor="#e5823b"] ;
353 -> 354 ;
355 [label="occupation_ Priv-house-serv <= 0.5\ngini = 0.016\nsamples = 164\nvalue = [251, 2]\nclass = <=50K", fillcolor="#e5823b"] ;
354 -> 355 ;
356 [label="workclass_ Local-gov <= 0.5\ngini = 0.016\nsamples = 163\nvalue = [250, 2]\nclass = <=50K", fillcolor="#e5823b"] ;
355 -> 356 ;
357 [label="workclass_ State-gov <= 0.5\ngini = 0.017\nsamples = 154\nvalue = [237, 2]\nclass = <=50K", fillcolor="#e5823b"] ;
356 -> 357 ;
358 [label="education_ 12th <= 0.5\ngini = 0.017\nsamples = 149\nvalue = [228, 2]\nclass = <=50K", fillcolor="#e5823b"] ;
357 -> 358 ;
359 [label="education_ Assoc-voc <= 0.5\ngini = 0.017\nsamples = 148\nvalue = [227, 2]\nclass = <=50K", fillcolor="#e5823b"] ;
358 -> 359 ;
360 [label="education_ 10th <= 0.5\ngini = 0.019\nsamples = 134\nvalue = [207, 2]\nclass = <=50K", fillcolor="#e5823b"] ;
359 -> 360 ;
361 [label="occupation_ Tech-support <= 0.5\ngini = 0.02\nsamples = 127\nvalue = [193, 2]\nclass = <=50K", fillcolor="#e5823b"] ;
360 -> 361 ;
362 [label="occupation_ Other-service <= 0.5\ngini = 0.022\nsamples = 117\nvalue = [180, 2]\nclass = <=50K", fillcolor="#e5823b"] ;
361 -> 362 ;
363 [label="education_ 9th <= 0.5\ngini = 0.041\nsamples = 61\nvalue = [93, 2]\nclass = <=50K", fillcolor="#e6843d"] ;
362 -> 363 ;
364 [label="education_ Assoc-acdm <= 0.5\ngini = 0.042\nsamples = 60\nvalue = [92, 2]\nclass = <=50K", fillcolor="#e6843d"] ;
363 -> 364 ;
365 [label="occupation_ Sales <= 0.5\ngini = 0.043\nsamples = 58\nvalue = [90, 2]\nclass = <=50K", fillcolor="#e6843d"] ;
364 -> 365 ;
366 [label="gini = 0.0\nsamples = 23\nvalue = [38, 0]\nclass = <=50K", fillcolor="#e58139"] ;
365 -> 366 ;
367 [label="education_ 7th-8th <= 0.5\ngini = 0.071\nsamples = 35\nvalue = [52, 2]\nclass = <=50K", fillcolor="#e68641"] ;
365 -> 367 ;
368 [label="education_ Some-college <= 0.5\ngini = 0.073\nsamples = 34\nvalue = [51, 2]\nclass = <=50K", fillcolor="#e68641"] ;
367 -> 368 ;
369 [label="gini = 0.064\nsamples = 17\nvalue = [29, 1]\nclass = <=50K", fillcolor="#e68540"] ;
368 -> 369 ;
370 [label="gini = 0.083\nsamples = 17\nvalue = [22, 1]\nclass = <=50K", fillcolor="#e68742"] ;
368 -> 370 ;
371 [label="gini = 0.0\nsamples = 1\nvalue = [1, 0]\nclass = <=50K", fillcolor="#e58139"] ;
367 -> 371 ;
372 [label="gini = 0.0\nsamples = 2\nvalue = [2, 0]\nclass = <=50K", fillcolor="#e58139"] ;
364 -> 372 ;
373 [label="gini = 0.0\nsamples = 1\nvalue = [1, 0]\nclass = <=50K", fillcolor="#e58139"] ;
363 -> 373 ;
374 [label="gini = 0.0\nsamples = 56\nvalue = [87, 0]\nclass = <=50K", fillcolor="#e58139"] ;
362 -> 374 ;
375 [label="gini = 0.0\nsamples = 10\nvalue = [13, 0]\nclass = <=50K", fillcolor="#e58139"] ;
361 -> 375 ;
376 [label="gini = 0.0\nsamples = 7\nvalue = [14, 0]\nclass = <=50K", fillcolor="#e58139"] ;
360 -> 376 ;
377 [label="gini = 0.0\nsamples = 14\nvalue = [20, 0]\nclass = <=50K", fillcolor="#e58139"] ;
359 -> 377 ;
378 [label="gini = 0.0\nsamples = 1\nvalue = [1, 0]\nclass = <=50K", fillcolor="#e58139"] ;
358 -> 378 ;
379 [label="gini = 0.0\nsamples = 5\nvalue = [9, 0]\nclass = <=50K", fillcolor="#e58139"] ;
357 -> 379 ;
380 [label="gini = 0.0\nsamples = 9\nvalue = [13, 0]\nclass = <=50K", fillcolor="#e58139"] ;
356 -> 380 ;
381 [label="gini = 0.0\nsamples = 1\nvalue = [1, 0]\nclass = <=50K", fillcolor="#e58139"] ;
355 -> 381 ;
382 [label="gini = 0.0\nsamples = 4\nvalue = [5, 0]\nclass = <=50K", fillcolor="#e58139"] ;
354 -> 382 ;
383 [label="gini = 0.0\nsamples = 35\nvalue = [63, 0]\nclass = <=50K", fillcolor="#e58139"] ;
353 -> 383 ;
384 [label="education_ Some-college <= 0.5\ngini = 0.1\nsamples = 12\nvalue = [18, 1]\nclass = <=50K", fillcolor="#e68844"] ;
352 -> 384 ;
385 [label="gini = 0.0\nsamples = 9\nvalue = [15, 0]\nclass = <=50K", fillcolor="#e58139"] ;
384 -> 385 ;
386 [label="gini = 0.375\nsamples = 3\nvalue = [3, 1]\nclass = <=50K", fillcolor="#eeab7b"] ;
384 -> 386 ;
387 [label="workclass_ Private <= 0.5\ngini = 0.375\nsamples = 4\nvalue = [3, 1]\nclass = <=50K", fillcolor="#eeab7b"] ;
349 -> 387 ;
388 [label="gini = 0.0\nsamples = 1\nvalue = [0, 1]\nclass = >50K", fillcolor="#399de5"] ;
387 -> 388 ;
389 [label="gini = 0.0\nsamples = 3\nvalue = [3, 0]\nclass = <=50K", fillcolor="#e58139"] ;
387 -> 389 ;
390 [label="gini = 0.0\nsamples = 27\nvalue = [53, 0]\nclass = <=50K", fillcolor="#e58139"] ;
304 -> 390 ;
391 [label="education_ HS-grad <= 0.5\ngini = 0.408\nsamples = 4\nvalue = [5, 2]\nclass = <=50K", fillcolor="#efb388"] ;
303 -> 391 ;
392 [label="occupation_ Sales <= 0.5\ngini = 0.48\nsamples = 3\nvalue = [3, 2]\nclass = <=50K", fillcolor="#f6d5bd"] ;
391 -> 392 ;
393 [label="gini = 0.0\nsamples = 2\nvalue = [3, 0]\nclass = <=50K", fillcolor="#e58139"] ;
392 -> 393 ;
394 [label="gini = 0.0\nsamples = 1\nvalue = [0, 2]\nclass = >50K", fillcolor="#399de5"] ;
392 -> 394 ;
395 [label="gini = 0.0\nsamples = 1\nvalue = [2, 0]\nclass = <=50K", fillcolor="#e58139"] ;
391 -> 395 ;
396 [label="relationship_ Own-child <= 0.5\ngini = 0.075\nsamples = 82\nvalue = [124, 5]\nclass = <=50K", fillcolor="#e68641"] ;
302 -> 396 ;
397 [label="workclass_ Local-gov <= 0.5\ngini = 0.085\nsamples = 72\nvalue = [108, 5]\nclass = <=50K", fillcolor="#e68742"] ;
396 -> 397 ;
398 [label="gender_ Female <= 0.5\ngini = 0.072\nsamples = 66\nvalue = [103, 4]\nclass = <=50K", fillcolor="#e68641"] ;
397 -> 398 ;
399 [label="gini = 0.0\nsamples = 9\nvalue = [13, 0]\nclass = <=50K", fillcolor="#e58139"] ;
398 -> 399 ;
400 [label="race_ Black <= 0.5\ngini = 0.081\nsamples = 57\nvalue = [90, 4]\nclass = <=50K", fillcolor="#e68742"] ;
398 -> 400 ;
401 [label="education_ HS-grad <= 0.5\ngini = 0.092\nsamples = 52\nvalue = [79, 4]\nclass = <=50K", fillcolor="#e68743"] ;
400 -> 401 ;
402 [label="education_ Assoc-acdm <= 0.5\ngini = 0.045\nsamples = 29\nvalue = [42, 1]\nclass = <=50K", fillcolor="#e6843e"] ;
401 -> 402 ;
403 [label="gini = 0.0\nsamples = 26\nvalue = [38, 0]\nclass = <=50K", fillcolor="#e58139"] ;
402 -> 403 ;
404 [label="native-country_ England <= 0.5\ngini = 0.32\nsamples = 3\nvalue = [4, 1]\nclass = <=50K", fillcolor="#eca06a"] ;
402 -> 404 ;
405 [label="gini = 0.5\nsamples = 2\nvalue = [1, 1]\nclass = <=50K", fillcolor="#ffffff"] ;
404 -> 405 ;
406 [label="gini = 0.0\nsamples = 1\nvalue = [3, 0]\nclass = <=50K", fillcolor="#e58139"] ;
404 -> 406 ;
407 [label="workclass_ State-gov <= 0.5\ngini = 0.139\nsamples = 23\nvalue = [37, 3]\nclass = <=50K", fillcolor="#e78b49"] ;
401 -> 407 ;
408 [label="gini = 0.165\nsamples = 20\nvalue = [30, 3]\nclass = <=50K", fillcolor="#e88e4d"] ;
407 -> 408 ;
409 [label="gini = 0.0\nsamples = 3\nvalue = [7, 0]\nclass = <=50K", fillcolor="#e58139"] ;
407 -> 409 ;
410 [label="gini = 0.0\nsamples = 5\nvalue = [11, 0]\nclass = <=50K", fillcolor="#e58139"] ;
400 -> 410 ;
411 [label="education_ HS-grad <= 0.5\ngini = 0.278\nsamples = 6\nvalue = [5, 1]\nclass = <=50K", fillcolor="#ea9a61"] ;
397 -> 411 ;
412 [label="race_ White <= 0.5\ngini = 0.32\nsamples = 5\nvalue = [4, 1]\nclass = <=50K", fillcolor="#eca06a"] ;
411 -> 412 ;
413 [label="gini = 0.0\nsamples = 2\nvalue = [2, 0]\nclass = <=50K", fillcolor="#e58139"] ;
412 -> 413 ;
414 [label="gender_ Male <= 0.5\ngini = 0.444\nsamples = 3\nvalue = [2, 1]\nclass = <=50K", fillcolor="#f2c09c"] ;
412 -> 414 ;
415 [label="gini = 0.0\nsamples = 2\nvalue = [2, 0]\nclass = <=50K", fillcolor="#e58139"] ;
414 -> 415 ;
416 [label="gini = 0.0\nsamples = 1\nvalue = [0, 1]\nclass = >50K", fillcolor="#399de5"] ;
414 -> 416 ;
417 [label="gini = 0.0\nsamples = 1\nvalue = [1, 0]\nclass = <=50K", fillcolor="#e58139"] ;
411 -> 417 ;
418 [label="gini = 0.0\nsamples = 10\nvalue = [16, 0]\nclass = <=50K", fillcolor="#e58139"] ;
396 -> 418 ;
419 [label="occupation_ Handlers-cleaners <= 0.5\ngini = 0.107\nsamples = 35\nvalue = [50, 3]\nclass = <=50K", fillcolor="#e78945"] ;
301 -> 419 ;
420 [label="workclass_ Private <= 0.5\ngini = 0.115\nsamples = 31\nvalue = [46, 3]\nclass = <=50K", fillcolor="#e78946"] ;
419 -> 420 ;
421 [label="race_ Black <= 0.5\ngini = 0.48\nsamples = 3\nvalue = [3, 2]\nclass = <=50K", fillcolor="#f6d5bd"] ;
420 -> 421 ;
422 [label="occupation_ Other-service <= 0.5\ngini = 0.444\nsamples = 2\nvalue = [1, 2]\nclass = >50K", fillcolor="#9ccef2"] ;
421 -> 422 ;
423 [label="gini = 0.0\nsamples = 1\nvalue = [1, 0]\nclass = <=50K", fillcolor="#e58139"] ;
422 -> 423 ;
424 [label="gini = 0.0\nsamples = 1\nvalue = [0, 2]\nclass = >50K", fillcolor="#399de5"] ;
422 -> 424 ;
425 [label="gini = 0.0\nsamples = 1\nvalue = [2, 0]\nclass = <=50K", fillcolor="#e58139"] ;
421 -> 425 ;
426 [label="education_ HS-grad <= 0.5\ngini = 0.044\nsamples = 28\nvalue = [43, 1]\nclass = <=50K", fillcolor="#e6843e"] ;
420 -> 426 ;
427 [label="gender_ Male <= 0.5\ngini = 0.105\nsamples = 12\nvalue = [17, 1]\nclass = <=50K", fillcolor="#e78845"] ;
426 -> 427 ;
428 [label="education_ 9th <= 0.5\ngini = 0.18\nsamples = 8\nvalue = [9, 1]\nclass = <=50K", fillcolor="#e88f4f"] ;
427 -> 428 ;
429 [label="race_ White <= 0.5\ngini = 0.198\nsamples = 7\nvalue = [8, 1]\nclass = <=50K", fillcolor="#e89152"] ;
428 -> 429 ;
430 [label="gini = 0.0\nsamples = 1\nvalue = [1, 0]\nclass = <=50K", fillcolor="#e58139"] ;
429 -> 430 ;
431 [label="occupation_ Sales <= 0.5\ngini = 0.219\nsamples = 6\nvalue = [7, 1]\nclass = <=50K", fillcolor="#e99355"] ;
429 -> 431 ;
432 [label="gini = 0.0\nsamples = 3\nvalue = [5, 0]\nclass = <=50K", fillcolor="#e58139"] ;
431 -> 432 ;
433 [label="education_ Some-college <= 0.5\ngini = 0.444\nsamples = 3\nvalue = [2, 1]\nclass = <=50K", fillcolor="#f2c09c"] ;
431 -> 433 ;
434 [label="gini = 0.0\nsamples = 1\nvalue = [1, 0]\nclass = <=50K", fillcolor="#e58139"] ;
433 -> 434 ;
435 [label="gini = 0.5\nsamples = 2\nvalue = [1, 1]\nclass = <=50K", fillcolor="#ffffff"] ;
433 -> 435 ;
436 [label="gini = 0.0\nsamples = 1\nvalue = [1, 0]\nclass = <=50K", fillcolor="#e58139"] ;
428 -> 436 ;
437 [label="gini = 0.0\nsamples = 4\nvalue = [8, 0]\nclass = <=50K", fillcolor="#e58139"] ;
427 -> 437 ;
438 [label="gini = 0.0\nsamples = 16\nvalue = [26, 0]\nclass = <=50K", fillcolor="#e58139"] ;
426 -> 438 ;
439 [label="gini = 0.0\nsamples = 4\nvalue = [4, 0]\nclass = <=50K", fillcolor="#e58139"] ;
419 -> 439 ;
440 [label="workclass_ Local-gov <= 0.5\ngini = 0.26\nsamples = 55\nvalue = [77, 14]\nclass = <=50K", fillcolor="#ea985d"] ;
300 -> 440 ;
441 [label="occupation_ ? <= 0.5\ngini = 0.275\nsamples = 51\nvalue = [71, 14]\nclass = <=50K", fillcolor="#ea9a60"] ;
440 -> 441 ;
442 [label="native-country_ Germany <= 0.5\ngini = 0.298\nsamples = 47\nvalue = [63, 14]\nclass = <=50K", fillcolor="#eb9d65"] ;
441 -> 442 ;
443 [label="occupation_ Machine-op-inspct <= 0.5\ngini = 0.284\nsamples = 46\nvalue = [63, 13]\nclass = <=50K", fillcolor="#ea9b62"] ;
442 -> 443 ;
444 [label="race_ Black <= 0.5\ngini = 0.296\nsamples = 44\nvalue = [59, 13]\nclass = <=50K", fillcolor="#eb9d65"] ;
443 -> 444 ;
445 [label="relationship_ Other-relative <= 0.5\ngini = 0.312\nsamples = 38\nvalue = [50, 12]\nclass = <=50K", fillcolor="#eb9f69"] ;
444 -> 445 ;
446 [label="race_ White <= 0.5\ngini = 0.324\nsamples = 35\nvalue = [47, 12]\nclass = <=50K", fillcolor="#eca16c"] ;
445 -> 446 ;
447 [label="gini = 0.0\nsamples = 2\nvalue = [3, 0]\nclass = <=50K", fillcolor="#e58139"] ;
446 -> 447 ;
448 [label="native-country_ United-States <= 0.5\ngini = 0.337\nsamples = 33\nvalue = [44, 12]\nclass = <=50K", fillcolor="#eca36f"] ;
446 -> 448 ;
449 [label="gini = 0.0\nsamples = 2\nvalue = [4, 0]\nclass = <=50K", fillcolor="#e58139"] ;
448 -> 449 ;
450 [label="relationship_ Own-child <= 0.5\ngini = 0.355\nsamples = 31\nvalue = [40, 12]\nclass = <=50K", fillcolor="#eda774"] ;
448 -> 450 ;
451 [label="occupation_ Tech-support <= 0.5\ngini = 0.369\nsamples = 25\nvalue = [34, 11]\nclass = <=50K", fillcolor="#edaa79"] ;
450 -> 451 ;
452 [label="occupation_ Priv-house-serv <= 0.5\ngini = 0.387\nsamples = 24\nvalue = [31, 11]\nclass = <=50K", fillcolor="#eeae7f"] ;
451 -> 452 ;
453 [label="gender_ Male <= 0.5\ngini = 0.393\nsamples = 23\nvalue = [30, 11]\nclass = <=50K", fillcolor="#efaf82"] ;
452 -> 453 ;
454 [label="occupation_ Exec-managerial <= 0.5\ngini = 0.208\nsamples = 18\nvalue = [30, 4]\nclass = <=50K", fillcolor="#e89253"] ;
453 -> 454 ;
455 [label="gini = 0.0\nsamples = 5\nvalue = [13, 0]\nclass = <=50K", fillcolor="#e58139"] ;
454 -> 455 ;
456 [label="gini = 0.308\nsamples = 13\nvalue = [17, 4]\nclass = <=50K", fillcolor="#eb9f68"] ;
454 -> 456 ;
457 [label="gini = 0.0\nsamples = 5\nvalue = [0, 7]\nclass = >50K", fillcolor="#399de5"] ;
453 -> 457 ;
458 [label="gini = 0.0\nsamples = 1\nvalue = [1, 0]\nclass = <=50K", fillcolor="#e58139"] ;
452 -> 458 ;
459 [label="gini = 0.0\nsamples = 1\nvalue = [3, 0]\nclass = <=50K", fillcolor="#e58139"] ;
451 -> 459 ;
460 [label="gender_ Female <= 0.5\ngini = 0.245\nsamples = 6\nvalue = [6, 1]\nclass = <=50K", fillcolor="#e9965a"] ;
450 -> 460 ;
461 [label="gini = 0.0\nsamples = 4\nvalue = [4, 0]\nclass = <=50K", fillcolor="#e58139"] ;
460 -> 461 ;
462 [label="occupation_ Exec-managerial <= 0.5\ngini = 0.444\nsamples = 2\nvalue = [2, 1]\nclass = <=50K", fillcolor="#f2c09c"] ;
460 -> 462 ;
463 [label="gini = 0.0\nsamples = 1\nvalue = [2, 0]\nclass = <=50K", fillcolor="#e58139"] ;
462 -> 463 ;
464 [label="gini = 0.0\nsamples = 1\nvalue = [0, 1]\nclass = >50K", fillcolor="#399de5"] ;
462 -> 464 ;
465 [label="gini = 0.0\nsamples = 3\nvalue = [3, 0]\nclass = <=50K", fillcolor="#e58139"] ;
445 -> 465 ;
466 [label="occupation_ Exec-managerial <= 0.5\ngini = 0.18\nsamples = 6\nvalue = [9, 1]\nclass = <=50K", fillcolor="#e88f4f"] ;
444 -> 466 ;
467 [label="gender_ Female <= 0.5\ngini = 0.444\nsamples = 3\nvalue = [2, 1]\nclass = <=50K", fillcolor="#f2c09c"] ;
466 -> 467 ;
468 [label="gini = 0.0\nsamples = 2\nvalue = [2, 0]\nclass = <=50K", fillcolor="#e58139"] ;
467 -> 468 ;
469 [label="gini = 0.0\nsamples = 1\nvalue = [0, 1]\nclass = >50K", fillcolor="#399de5"] ;
467 -> 469 ;
470 [label="gini = 0.0\nsamples = 3\nvalue = [7, 0]\nclass = <=50K", fillcolor="#e58139"] ;
466 -> 470 ;
471 [label="gini = 0.0\nsamples = 2\nvalue = [4, 0]\nclass = <=50K", fillcolor="#e58139"] ;
443 -> 471 ;
472 [label="gini = 0.0\nsamples = 1\nvalue = [0, 1]\nclass = >50K", fillcolor="#399de5"] ;
442 -> 472 ;
473 [label="gini = 0.0\nsamples = 4\nvalue = [8, 0]\nclass = <=50K", fillcolor="#e58139"] ;
441 -> 473 ;
474 [label="gini = 0.0\nsamples = 4\nvalue = [6, 0]\nclass = <=50K", fillcolor="#e58139"] ;
440 -> 474 ;
475 [label="gini = 0.0\nsamples = 1\nvalue = [0, 2]\nclass = >50K", fillcolor="#399de5"] ;
299 -> 475 ;
476 [label="occupation_ Transport-moving <= 0.5\ngini = 0.32\nsamples = 37\nvalue = [40, 10]\nclass = <=50K", fillcolor="#eca06a"] ;
298 -> 476 ;
477 [label="education_ Some-college <= 0.5\ngini = 0.33\nsamples = 36\nvalue = [38, 10]\nclass = <=50K", fillcolor="#eca26d"] ;
476 -> 477 ;
478 [label="native-country_ South <= 0.5\ngini = 0.245\nsamples = 27\nvalue = [30, 5]\nclass = <=50K", fillcolor="#e9965a"] ;
477 -> 478 ;
479 [label="education_ Assoc-acdm <= 0.5\ngini = 0.208\nsamples = 26\nvalue = [30, 4]\nclass = <=50K", fillcolor="#e89253"] ;
478 -> 479 ;
480 [label="relationship_ Other-relative <= 0.5\ngini = 0.213\nsamples = 25\nvalue = [29, 4]\nclass = <=50K", fillcolor="#e99254"] ;
479 -> 480 ;
481 [label="relationship_ Unmarried <= 0.5\ngini = 0.238\nsamples = 23\nvalue = [25, 4]\nclass = <=50K", fillcolor="#e99559"] ;
480 -> 481 ;
482 [label="gender_ Male <= 0.5\ngini = 0.32\nsamples = 5\nvalue = [4, 1]\nclass = <=50K", fillcolor="#eca06a"] ;
481 -> 482 ;
483 [label="gini = 0.0\nsamples = 1\nvalue = [1, 0]\nclass = <=50K", fillcolor="#e58139"] ;
482 -> 483 ;
484 [label="education_ HS-grad <= 0.5\ngini = 0.375\nsamples = 4\nvalue = [3, 1]\nclass = <=50K", fillcolor="#eeab7b"] ;
482 -> 484 ;
485 [label="occupation_ Sales <= 0.5\ngini = 0.5\nsamples = 2\nvalue = [1, 1]\nclass = <=50K", fillcolor="#ffffff"] ;
484 -> 485 ;
486 [label="gini = 0.0\nsamples = 1\nvalue = [0, 1]\nclass = >50K", fillcolor="#399de5"] ;
485 -> 486 ;
487 [label="gini = 0.0\nsamples = 1\nvalue = [1, 0]\nclass = <=50K", fillcolor="#e58139"] ;
485 -> 487 ;
488 [label="gini = 0.0\nsamples = 2\nvalue = [2, 0]\nclass = <=50K", fillcolor="#e58139"] ;
484 -> 488 ;
489 [label="occupation_ Farming-fishing <= 0.5\ngini = 0.219\nsamples = 18\nvalue = [21, 3]\nclass = <=50K", fillcolor="#e99355"] ;
481 -> 489 ;
490 [label="occupation_ Other-service <= 0.5\ngini = 0.266\nsamples = 14\nvalue = [16, 3]\nclass = <=50K", fillcolor="#ea995e"] ;
489 -> 490 ;
491 [label="occupation_ Sales <= 0.5\ngini = 0.355\nsamples = 9\nvalue = [10, 3]\nclass = <=50K", fillcolor="#eda774"] ;
490 -> 491 ;
492 [label="gender_ Female <= 0.5\ngini = 0.444\nsamples = 7\nvalue = [6, 3]\nclass = <=50K", fillcolor="#f2c09c"] ;
491 -> 492 ;
493 [label="education_ HS-grad <= 0.5\ngini = 0.5\nsamples = 3\nvalue = [2, 2]\nclass = <=50K", fillcolor="#ffffff"] ;
492 -> 493 ;
494 [label="gini = 0.444\nsamples = 2\nvalue = [1, 2]\nclass = >50K", fillcolor="#9ccef2"] ;
493 -> 494 ;
495 [label="gini = 0.0\nsamples = 1\nvalue = [1, 0]\nclass = <=50K", fillcolor="#e58139"] ;
493 -> 495 ;
496 [label="education_ HS-grad <= 0.5\ngini = 0.32\nsamples = 4\nvalue = [4, 1]\nclass = <=50K", fillcolor="#eca06a"] ;
492 -> 496 ;
497 [label="gini = 0.0\nsamples = 1\nvalue = [1, 0]\nclass = <=50K", fillcolor="#e58139"] ;
496 -> 497 ;
498 [label="gini = 0.375\nsamples = 3\nvalue = [3, 1]\nclass = <=50K", fillcolor="#eeab7b"] ;
496 -> 498 ;
499 [label="gini = 0.0\nsamples = 2\nvalue = [4, 0]\nclass = <=50K", fillcolor="#e58139"] ;
491 -> 499 ;
500 [label="gini = 0.0\nsamples = 5\nvalue = [6, 0]\nclass = <=50K", fillcolor="#e58139"] ;
490 -> 500 ;
501 [label="gini = 0.0\nsamples = 4\nvalue = [5, 0]\nclass = <=50K", fillcolor="#e58139"] ;
489 -> 501 ;
502 [label="gini = 0.0\nsamples = 2\nvalue = [4, 0]\nclass = <=50K", fillcolor="#e58139"] ;
480 -> 502 ;
503 [label="gini = 0.0\nsamples = 1\nvalue = [1, 0]\nclass = <=50K", fillcolor="#e58139"] ;
479 -> 503 ;
504 [label="gini = 0.0\nsamples = 1\nvalue = [0, 1]\nclass = >50K", fillcolor="#399de5"] ;
478 -> 504 ;
505 [label="occupation_ Exec-managerial <= 0.5\ngini = 0.473\nsamples = 9\nvalue = [8, 5]\nclass = <=50K", fillcolor="#f5d0b5"] ;
477 -> 505 ;
506 [label="relationship_ Own-child <= 0.5\ngini = 0.346\nsamples = 7\nvalue = [7, 2]\nclass = <=50K", fillcolor="#eca572"] ;
505 -> 506 ;
507 [label="gender_ Male <= 0.5\ngini = 0.408\nsamples = 6\nvalue = [5, 2]\nclass = <=50K", fillcolor="#efb388"] ;
506 -> 507 ;
508 [label="occupation_ Farming-fishing <= 0.5\ngini = 0.48\nsamples = 4\nvalue = [3, 2]\nclass = <=50K", fillcolor="#f6d5bd"] ;
507 -> 508 ;
509 [label="gini = 0.0\nsamples = 3\nvalue = [3, 0]\nclass = <=50K", fillcolor="#e58139"] ;
508 -> 509 ;
510 [label="gini = 0.0\nsamples = 1\nvalue = [0, 2]\nclass = >50K", fillcolor="#399de5"] ;
508 -> 510 ;
511 [label="gini = 0.0\nsamples = 2\nvalue = [2, 0]\nclass = <=50K", fillcolor="#e58139"] ;
507 -> 511 ;
512 [label="gini = 0.0\nsamples = 1\nvalue = [2, 0]\nclass = <=50K", fillcolor="#e58139"] ;
506 -> 512 ;
513 [label="gender_ Female <= 0.5\ngini = 0.375\nsamples = 2\nvalue = [1, 3]\nclass = >50K", fillcolor="#7bbeee"] ;
505 -> 513 ;
514 [label="gini = 0.0\nsamples = 1\nvalue = [0, 3]\nclass = >50K", fillcolor="#399de5"] ;
513 -> 514 ;
515 [label="gini = 0.0\nsamples = 1\nvalue = [1, 0]\nclass = <=50K", fillcolor="#e58139"] ;
513 -> 515 ;
516 [label="gini = 0.0\nsamples = 1\nvalue = [2, 0]\nclass = <=50K", fillcolor="#e58139"] ;
476 -> 516 ;
517 [label="marital-status_ Never-married <= 0.5\ngini = 0.094\nsamples = 431\nvalue = [657, 34]\nclass = <=50K", fillcolor="#e68843"] ;
9 -> 517 ;
518 [label="education_ HS-grad <= 0.5\ngini = 0.168\nsamples = 171\nvalue = [236, 24]\nclass = <=50K", fillcolor="#e88e4d"] ;
517 -> 518 ;
519 [label="race_ Black <= 0.5\ngini = 0.232\nsamples = 77\nvalue = [97, 15]\nclass = <=50K", fillcolor="#e99458"] ;
518 -> 519 ;
520 [label="native-country_ Iran <= 0.5\ngini = 0.253\nsamples = 70\nvalue = [86, 15]\nclass = <=50K", fillcolor="#ea975c"] ;
519 -> 520 ;
521 [label="native-country_ United-States <= 0.5\ngini = 0.255\nsamples = 69\nvalue = [85, 15]\nclass = <=50K", fillcolor="#ea975c"] ;
520 -> 521 ;
522 [label="gini = 0.0\nsamples = 6\nvalue = [7, 0]\nclass = <=50K", fillcolor="#e58139"] ;
521 -> 522 ;
523 [label="workclass_ Self-emp-not-inc <= 0.5\ngini = 0.271\nsamples = 63\nvalue = [78, 15]\nclass = <=50K", fillcolor="#ea995f"] ;
521 -> 523 ;
524 [label="race_ White <= 0.5\ngini = 0.291\nsamples = 58\nvalue = [70, 15]\nclass = <=50K", fillcolor="#eb9c63"] ;
523 -> 524 ;
525 [label="gini = 0.0\nsamples = 1\nvalue = [0, 1]\nclass = >50K", fillcolor="#399de5"] ;
524 -> 525 ;
526 [label="marital-status_ Separated <= 0.5\ngini = 0.278\nsamples = 57\nvalue = [70, 14]\nclass = <=50K", fillcolor="#ea9a61"] ;
524 -> 526 ;
527 [label="relationship_ Own-child <= 0.5\ngini = 0.25\nsamples = 50\nvalue = [64, 11]\nclass = <=50K", fillcolor="#e9975b"] ;
526 -> 527 ;
528 [label="gender_ Female <= 0.5\ngini = 0.209\nsamples = 37\nvalue = [52, 7]\nclass = <=50K", fillcolor="#e89254"] ;
527 -> 528 ;
529 [label="relationship_ Unmarried <= 0.5\ngini = 0.26\nsamples = 24\nvalue = [33, 6]\nclass = <=50K", fillcolor="#ea985d"] ;
528 -> 529 ;
530 [label="gini = 0.0\nsamples = 2\nvalue = [2, 0]\nclass = <=50K", fillcolor="#e58139"] ;
529 -> 530 ;
531 [label="marital-status_ Married-spouse-absent <= 0.5\ngini = 0.272\nsamples = 22\nvalue = [31, 6]\nclass = <=50K", fillcolor="#ea995f"] ;
529 -> 531 ;
532 [label="education_ 9th <= 0.5\ngini = 0.231\nsamples = 18\nvalue = [26, 4]\nclass = <=50K", fillcolor="#e99457"] ;
531 -> 532 ;
533 [label="education_ Assoc-acdm <= 0.5\ngini = 0.238\nsamples = 17\nvalue = [25, 4]\nclass = <=50K", fillcolor="#e99559"] ;
532 -> 533 ;
534 [label="education_ Bachelors <= 0.5\ngini = 0.191\nsamples = 16\nvalue = [25, 3]\nclass = <=50K", fillcolor="#e89051"] ;
533 -> 534 ;
535 [label="education_ Some-college <= 0.5\ngini = 0.204\nsamples = 15\nvalue = [23, 3]\nclass = <=50K", fillcolor="#e89153"] ;
534 -> 535 ;
536 [label="education_ 11th <= 0.5\ngini = 0.198\nsamples = 5\nvalue = [8, 1]\nclass = <=50K", fillcolor="#e89152"] ;
535 -> 536 ;
537 [label="marital-status_ Divorced <= 0.5\ngini = 0.278\nsamples = 4\nvalue = [5, 1]\nclass = <=50K", fillcolor="#ea9a61"] ;
536 -> 537 ;
538 [label="gini = 0.0\nsamples = 1\nvalue = [2, 0]\nclass = <=50K", fillcolor="#e58139"] ;
537 -> 538 ;
539 [label="education_ 10th <= 0.5\ngini = 0.375\nsamples = 3\nvalue = [3, 1]\nclass = <=50K", fillcolor="#eeab7b"] ;
537 -> 539 ;
540 [label="gini = 0.444\nsamples = 2\nvalue = [2, 1]\nclass = <=50K", fillcolor="#f2c09c"] ;
539 -> 540 ;
541 [label="gini = 0.0\nsamples = 1\nvalue = [1, 0]\nclass = <=50K", fillcolor="#e58139"] ;
539 -> 541 ;
542 [label="gini = 0.0\nsamples = 1\nvalue = [3, 0]\nclass = <=50K", fillcolor="#e58139"] ;
536 -> 542 ;
543 [label="gini = 0.208\nsamples = 10\nvalue = [15, 2]\nclass = <=50K", fillcolor="#e89253"] ;
535 -> 543 ;
544 [label="gini = 0.0\nsamples = 1\nvalue = [2, 0]\nclass = <=50K", fillcolor="#e58139"] ;
534 -> 544 ;
545 [label="gini = 0.0\nsamples = 1\nvalue = [0, 1]\nclass = >50K", fillcolor="#399de5"] ;
533 -> 545 ;
546 [label="gini = 0.0\nsamples = 1\nvalue = [1, 0]\nclass = <=50K", fillcolor="#e58139"] ;
532 -> 546 ;
547 [label="education_ Some-college <= 0.5\ngini = 0.408\nsamples = 4\nvalue = [5, 2]\nclass = <=50K", fillcolor="#efb388"] ;
531 -> 547 ;
548 [label="gini = 0.0\nsamples = 3\nvalue = [5, 0]\nclass = <=50K", fillcolor="#e58139"] ;
547 -> 548 ;
549 [label="gini = 0.0\nsamples = 1\nvalue = [0, 2]\nclass = >50K", fillcolor="#399de5"] ;
547 -> 549 ;
550 [label="relationship_ Other-relative <= 0.5\ngini = 0.095\nsamples = 13\nvalue = [19, 1]\nclass = <=50K", fillcolor="#e68843"] ;
528 -> 550 ;
551 [label="marital-status_ Married-spouse-absent <= 0.5\ngini = 0.111\nsamples = 12\nvalue = [16, 1]\nclass = <=50K", fillcolor="#e78945"] ;
550 -> 551 ;
552 [label="education_ Assoc-acdm <= 0.5\ngini = 0.124\nsamples = 11\nvalue = [14, 1]\nclass = <=50K", fillcolor="#e78a47"] ;
551 -> 552 ;
553 [label="education_ 11th <= 0.5\ngini = 0.133\nsamples = 10\nvalue = [13, 1]\nclass = <=50K", fillcolor="#e78b48"] ;
552 -> 553 ;
554 [label="education_ Some-college <= 0.5\ngini = 0.142\nsamples = 9\nvalue = [12, 1]\nclass = <=50K", fillcolor="#e78c49"] ;
553 -> 554 ;
555 [label="education_ Bachelors <= 0.5\ngini = 0.375\nsamples = 3\nvalue = [3, 1]\nclass = <=50K", fillcolor="#eeab7b"] ;
554 -> 555 ;
556 [label="education_ 10th <= 0.5\ngini = 0.444\nsamples = 2\nvalue = [2, 1]\nclass = <=50K", fillcolor="#f2c09c"] ;
555 -> 556 ;
557 [label="gini = 0.0\nsamples = 1\nvalue = [0, 1]\nclass = >50K", fillcolor="#399de5"] ;
556 -> 557 ;
558 [label="gini = 0.0\nsamples = 1\nvalue = [2, 0]\nclass = <=50K", fillcolor="#e58139"] ;
556 -> 558 ;
559 [label="gini = 0.0\nsamples = 1\nvalue = [1, 0]\nclass = <=50K", fillcolor="#e58139"] ;
555 -> 559 ;
560 [label="gini = 0.0\nsamples = 6\nvalue = [9, 0]\nclass = <=50K", fillcolor="#e58139"] ;
554 -> 560 ;
561 [label="gini = 0.0\nsamples = 1\nvalue = [1, 0]\nclass = <=50K", fillcolor="#e58139"] ;
553 -> 561 ;
562 [label="gini = 0.0\nsamples = 1\nvalue = [1, 0]\nclass = <=50K", fillcolor="#e58139"] ;
552 -> 562 ;
563 [label="gini = 0.0\nsamples = 1\nvalue = [2, 0]\nclass = <=50K", fillcolor="#e58139"] ;
551 -> 563 ;
564 [label="gini = 0.0\nsamples = 1\nvalue = [3, 0]\nclass = <=50K", fillcolor="#e58139"] ;
550 -> 564 ;
565 [label="education_ 11th <= 0.5\ngini = 0.375\nsamples = 13\nvalue = [12, 4]\nclass = <=50K", fillcolor="#eeab7b"] ;
527 -> 565 ;
566 [label="education_ Assoc-voc <= 0.5\ngini = 0.337\nsamples = 11\nvalue = [11, 3]\nclass = <=50K", fillcolor="#eca36f"] ;
565 -> 566 ;
567 [label="education_ 9th <= 0.5\ngini = 0.355\nsamples = 10\nvalue = [10, 3]\nclass = <=50K", fillcolor="#eda774"] ;
566 -> 567 ;
568 [label="gender_ Male <= 0.5\ngini = 0.375\nsamples = 9\nvalue = [9, 3]\nclass = <=50K", fillcolor="#eeab7b"] ;
567 -> 568 ;
569 [label="gini = 0.0\nsamples = 1\nvalue = [1, 0]\nclass = <=50K", fillcolor="#e58139"] ;
568 -> 569 ;
570 [label="education_ Assoc-acdm <= 0.5\ngini = 0.397\nsamples = 8\nvalue = [8, 3]\nclass = <=50K", fillcolor="#efb083"] ;
568 -> 570 ;
571 [label="education_ Some-college <= 0.5\ngini = 0.444\nsamples = 7\nvalue = [6, 3]\nclass = <=50K", fillcolor="#f2c09c"] ;
570 -> 571 ;
572 [label="gini = 0.0\nsamples = 2\nvalue = [2, 0]\nclass = <=50K", fillcolor="#e58139"] ;
571 -> 572 ;
573 [label="gini = 0.49\nsamples = 5\nvalue = [4, 3]\nclass = <=50K", fillcolor="#f8e0ce"] ;
571 -> 573 ;
574 [label="gini = 0.0\nsamples = 1\nvalue = [2, 0]\nclass = <=50K", fillcolor="#e58139"] ;
570 -> 574 ;
575 [label="gini = 0.0\nsamples = 1\nvalue = [1, 0]\nclass = <=50K", fillcolor="#e58139"] ;
567 -> 575 ;
576 [label="gini = 0.0\nsamples = 1\nvalue = [1, 0]\nclass = <=50K", fillcolor="#e58139"] ;
566 -> 576 ;
577 [label="gender_ Male <= 0.5\ngini = 0.5\nsamples = 2\nvalue = [1, 1]\nclass = <=50K", fillcolor="#ffffff"] ;
565 -> 577 ;
578 [label="gini = 0.0\nsamples = 1\nvalue = [0, 1]\nclass = >50K", fillcolor="#399de5"] ;
577 -> 578 ;
579 [label="gini = 0.0\nsamples = 1\nvalue = [1, 0]\nclass = <=50K", fillcolor="#e58139"] ;
577 -> 579 ;
580 [label="gender_ Female <= 0.5\ngini = 0.444\nsamples = 7\nvalue = [6, 3]\nclass = <=50K", fillcolor="#f2c09c"] ;
526 -> 580 ;
581 [label="education_ 11th <= 0.5\ngini = 0.49\nsamples = 5\nvalue = [4, 3]\nclass = <=50K", fillcolor="#f8e0ce"] ;
580 -> 581 ;
582 [label="education_ Some-college <= 0.5\ngini = 0.375\nsamples = 3\nvalue = [1, 3]\nclass = >50K", fillcolor="#7bbeee"] ;
581 -> 582 ;
583 [label="education_ 9th <= 0.5\ngini = 0.444\nsamples = 2\nvalue = [1, 2]\nclass = >50K", fillcolor="#9ccef2"] ;
582 -> 583 ;
584 [label="gini = 0.0\nsamples = 1\nvalue = [0, 2]\nclass = >50K", fillcolor="#399de5"] ;
583 -> 584 ;
585 [label="gini = 0.0\nsamples = 1\nvalue = [1, 0]\nclass = <=50K", fillcolor="#e58139"] ;
583 -> 585 ;
586 [label="gini = 0.0\nsamples = 1\nvalue = [0, 1]\nclass = >50K", fillcolor="#399de5"] ;
582 -> 586 ;
587 [label="gini = 0.0\nsamples = 2\nvalue = [3, 0]\nclass = <=50K", fillcolor="#e58139"] ;
581 -> 587 ;
588 [label="gini = 0.0\nsamples = 2\nvalue = [2, 0]\nclass = <=50K", fillcolor="#e58139"] ;
580 -> 588 ;
589 [label="gini = 0.0\nsamples = 5\nvalue = [8, 0]\nclass = <=50K", fillcolor="#e58139"] ;
523 -> 589 ;
590 [label="gini = 0.0\nsamples = 1\nvalue = [1, 0]\nclass = <=50K", fillcolor="#e58139"] ;
520 -> 590 ;
591 [label="gini = 0.0\nsamples = 7\nvalue = [11, 0]\nclass = <=50K", fillcolor="#e58139"] ;
519 -> 591 ;
592 [label="native-country_ Mexico <= 0.5\ngini = 0.114\nsamples = 94\nvalue = [139, 9]\nclass = <=50K", fillcolor="#e78946"] ;
518 -> 592 ;
593 [label="race_ White <= 0.5\ngini = 0.067\nsamples = 92\nvalue = [138, 5]\nclass = <=50K", fillcolor="#e68640"] ;
592 -> 593 ;
594 [label="relationship_ Wife <= 0.5\ngini = 0.124\nsamples = 19\nvalue = [28, 2]\nclass = <=50K", fillcolor="#e78a47"] ;
593 -> 594 ;
595 [label="workclass_ Private <= 0.5\ngini = 0.067\nsamples = 18\nvalue = [28, 1]\nclass = <=50K", fillcolor="#e68640"] ;
594 -> 595 ;
596 [label="gini = 0.0\nsamples = 2\nvalue = [2, 0]\nclass = <=50K", fillcolor="#e58139"] ;
595 -> 596 ;
597 [label="gender_ Male <= 0.5\ngini = 0.071\nsamples = 16\nvalue = [26, 1]\nclass = <=50K", fillcolor="#e68641"] ;
595 -> 597 ;
598 [label="gini = 0.0\nsamples = 7\nvalue = [15, 0]\nclass = <=50K", fillcolor="#e58139"] ;
597 -> 598 ;
599 [label="relationship_ Other-relative <= 0.5\ngini = 0.153\nsamples = 9\nvalue = [11, 1]\nclass = <=50K", fillcolor="#e78c4b"] ;
597 -> 599 ;
600 [label="relationship_ Own-child <= 0.5\ngini = 0.198\nsamples = 7\nvalue = [8, 1]\nclass = <=50K", fillcolor="#e89152"] ;
599 -> 600 ;
601 [label="marital-status_ Divorced <= 0.5\ngini = 0.219\nsamples = 6\nvalue = [7, 1]\nclass = <=50K", fillcolor="#e99355"] ;
600 -> 601 ;
602 [label="gini = 0.0\nsamples = 4\nvalue = [6, 0]\nclass = <=50K", fillcolor="#e58139"] ;
601 -> 602 ;
603 [label="gini = 0.5\nsamples = 2\nvalue = [1, 1]\nclass = <=50K", fillcolor="#ffffff"] ;
601 -> 603 ;
604 [label="gini = 0.0\nsamples = 1\nvalue = [1, 0]\nclass = <=50K", fillcolor="#e58139"] ;
600 -> 604 ;
605 [label="gini = 0.0\nsamples = 2\nvalue = [3, 0]\nclass = <=50K", fillcolor="#e58139"] ;
599 -> 605 ;
606 [label="gini = 0.0\nsamples = 1\nvalue = [0, 1]\nclass = >50K", fillcolor="#399de5"] ;
594 -> 606 ;
607 [label="gender_ Male <= 0.5\ngini = 0.052\nsamples = 73\nvalue = [110, 3]\nclass = <=50K", fillcolor="#e6843e"] ;
593 -> 607 ;
608 [label="gini = 0.0\nsamples = 13\nvalue = [23, 0]\nclass = <=50K", fillcolor="#e58139"] ;
607 -> 608 ;
609 [label="native-country_ Philippines <= 0.5\ngini = 0.064\nsamples = 60\nvalue = [87, 3]\nclass = <=50K", fillcolor="#e68540"] ;
607 -> 609 ;
610 [label="relationship_ Unmarried <= 0.5\ngini = 0.065\nsamples = 59\nvalue = [86, 3]\nclass = <=50K", fillcolor="#e68540"] ;
609 -> 610 ;
611 [label="native-country_ Puerto-Rico <= 0.5\ngini = 0.105\nsamples = 22\nvalue = [34, 2]\nclass = <=50K", fillcolor="#e78845"] ;
610 -> 611 ;
612 [label="workclass_ Self-emp-not-inc <= 0.5\ngini = 0.114\nsamples = 21\nvalue = [31, 2]\nclass = <=50K", fillcolor="#e78946"] ;
611 -> 612 ;
613 [label="workclass_ State-gov <= 0.5\ngini = 0.147\nsamples = 17\nvalue = [23, 2]\nclass = <=50K", fillcolor="#e78c4a"] ;
612 -> 613 ;
614 [label="gini = 0.0\nsamples = 16\nvalue = [23, 0]\nclass = <=50K", fillcolor="#e58139"] ;
613 -> 614 ;
615 [label="gini = 0.0\nsamples = 1\nvalue = [0, 2]\nclass = >50K", fillcolor="#399de5"] ;
613 -> 615 ;
616 [label="gini = 0.0\nsamples = 4\nvalue = [8, 0]\nclass = <=50K", fillcolor="#e58139"] ;
612 -> 616 ;
617 [label="gini = 0.0\nsamples = 1\nvalue = [3, 0]\nclass = <=50K", fillcolor="#e58139"] ;
611 -> 617 ;
618 [label="native-country_ Japan <= 0.5\ngini = 0.037\nsamples = 37\nvalue = [52, 1]\nclass = <=50K", fillcolor="#e6833d"] ;
610 -> 618 ;
619 [label="workclass_ State-gov <= 0.5\ngini = 0.038\nsamples = 36\nvalue = [50, 1]\nclass = <=50K", fillcolor="#e6843d"] ;
618 -> 619 ;
620 [label="marital-status_ Widowed <= 0.5\ngini = 0.04\nsamples = 34\nvalue = [48, 1]\nclass = <=50K", fillcolor="#e6843d"] ;
619 -> 620 ;
621 [label="gini = 0.0\nsamples = 31\nvalue = [45, 0]\nclass = <=50K", fillcolor="#e58139"] ;
620 -> 621 ;
622 [label="gini = 0.375\nsamples = 3\nvalue = [3, 1]\nclass = <=50K", fillcolor="#eeab7b"] ;
620 -> 622 ;
623 [label="gini = 0.0\nsamples = 2\nvalue = [2, 0]\nclass = <=50K", fillcolor="#e58139"] ;
619 -> 623 ;
624 [label="gini = 0.0\nsamples = 1\nvalue = [2, 0]\nclass = <=50K", fillcolor="#e58139"] ;
618 -> 624 ;
625 [label="gini = 0.0\nsamples = 1\nvalue = [1, 0]\nclass = <=50K", fillcolor="#e58139"] ;
609 -> 625 ;
626 [label="marital-status_ Separated <= 0.5\ngini = 0.32\nsamples = 2\nvalue = [1, 4]\nclass = >50K", fillcolor="#6ab6ec"] ;
592 -> 626 ;
627 [label="gini = 0.0\nsamples = 1\nvalue = [0, 4]\nclass = >50K", fillcolor="#399de5"] ;
626 -> 627 ;
628 [label="gini = 0.0\nsamples = 1\nvalue = [1, 0]\nclass = <=50K", fillcolor="#e58139"] ;
626 -> 628 ;
629 [label="race_ Amer-Indian-Eskimo <= 0.5\ngini = 0.045\nsamples = 260\nvalue = [421, 10]\nclass = <=50K", fillcolor="#e6843e"] ;
517 -> 629 ;
630 [label="gender_ Female <= 0.5\ngini = 0.033\nsamples = 254\nvalue = [414, 7]\nclass = <=50K", fillcolor="#e5833c"] ;
629 -> 630 ;
631 [label="education_ 10th <= 0.5\ngini = 0.036\nsamples = 226\nvalue = [370, 7]\nclass = <=50K", fillcolor="#e5833d"] ;
630 -> 631 ;
632 [label="native-country_ ? <= 0.5\ngini = 0.038\nsamples = 216\nvalue = [355, 7]\nclass = <=50K", fillcolor="#e6833d"] ;
631 -> 632 ;
633 [label="workclass_ Private <= 0.5\ngini = 0.033\nsamples = 211\nvalue = [347, 6]\nclass = <=50K", fillcolor="#e5833c"] ;
632 -> 633 ;
634 [label="education_ Assoc-voc <= 0.5\ngini = 0.062\nsamples = 32\nvalue = [60, 2]\nclass = <=50K", fillcolor="#e68540"] ;
633 -> 634 ;
635 [label="relationship_ Own-child <= 0.5\ngini = 0.065\nsamples = 31\nvalue = [57, 2]\nclass = <=50K", fillcolor="#e68540"] ;
634 -> 635 ;
636 [label="relationship_ Other-relative <= 0.5\ngini = 0.278\nsamples = 6\nvalue = [10, 2]\nclass = <=50K", fillcolor="#ea9a61"] ;
635 -> 636 ;
637 [label="workclass_ Self-emp-not-inc <= 0.5\ngini = 0.32\nsamples = 5\nvalue = [8, 2]\nclass = <=50K", fillcolor="#eca06a"] ;
636 -> 637 ;
638 [label="gini = 0.0\nsamples = 3\nvalue = [6, 0]\nclass = <=50K", fillcolor="#e58139"] ;
637 -> 638 ;
639 [label="education_ HS-grad <= 0.5\ngini = 0.5\nsamples = 2\nvalue = [2, 2]\nclass = <=50K", fillcolor="#ffffff"] ;
637 -> 639 ;
640 [label="gini = 0.0\nsamples = 1\nvalue = [2, 0]\nclass = <=50K", fillcolor="#e58139"] ;
639 -> 640 ;
641 [label="gini = 0.0\nsamples = 1\nvalue = [0, 2]\nclass = >50K", fillcolor="#399de5"] ;
639 -> 641 ;
642 [label="gini = 0.0\nsamples = 1\nvalue = [2, 0]\nclass = <=50K", fillcolor="#e58139"] ;
636 -> 642 ;
643 [label="gini = 0.0\nsamples = 25\nvalue = [47, 0]\nclass = <=50K", fillcolor="#e58139"] ;
635 -> 643 ;
644 [label="gini = 0.0\nsamples = 1\nvalue = [3, 0]\nclass = <=50K", fillcolor="#e58139"] ;
634 -> 644 ;
645 [label="race_ Black <= 0.5\ngini = 0.027\nsamples = 179\nvalue = [287, 4]\nclass = <=50K", fillcolor="#e5833c"] ;
633 -> 645 ;
646 [label="native-country_ United-States <= 0.5\ngini = 0.031\nsamples = 162\nvalue = [254, 4]\nclass = <=50K", fillcolor="#e5833c"] ;
645 -> 646 ;
647 [label="gini = 0.0\nsamples = 18\nvalue = [26, 0]\nclass = <=50K", fillcolor="#e58139"] ;
646 -> 647 ;
648 [label="education_ Some-college <= 0.5\ngini = 0.034\nsamples = 144\nvalue = [228, 4]\nclass = <=50K", fillcolor="#e5833c"] ;
646 -> 648 ;
649 [label="education_ 11th <= 0.5\ngini = 0.042\nsamples = 114\nvalue = [181, 4]\nclass = <=50K", fillcolor="#e6843d"] ;
648 -> 649 ;
650 [label="relationship_ Other-relative <= 0.5\ngini = 0.047\nsamples = 99\nvalue = [162, 4]\nclass = <=50K", fillcolor="#e6843e"] ;
649 -> 650 ;
651 [label="relationship_ Own-child <= 0.5\ngini = 0.056\nsamples = 84\nvalue = [136, 4]\nclass = <=50K", fillcolor="#e6853f"] ;
650 -> 651 ;
652 [label="gini = 0.0\nsamples = 12\nvalue = [23, 0]\nclass = <=50K", fillcolor="#e58139"] ;
651 -> 652 ;
653 [label="education_ Bachelors <= 0.5\ngini = 0.066\nsamples = 72\nvalue = [113, 4]\nclass = <=50K", fillcolor="#e68540"] ;
651 -> 653 ;
654 [label="education_ 7th-8th <= 0.5\ngini = 0.068\nsamples = 70\nvalue = [110, 4]\nclass = <=50K", fillcolor="#e68640"] ;
653 -> 654 ;
655 [label="education_ Assoc-acdm <= 0.5\ngini = 0.069\nsamples = 68\nvalue = [107, 4]\nclass = <=50K", fillcolor="#e68640"] ;
654 -> 655 ;
656 [label="education_ Assoc-voc <= 0.5\ngini = 0.073\nsamples = 65\nvalue = [101, 4]\nclass = <=50K", fillcolor="#e68641"] ;
655 -> 656 ;
657 [label="education_ HS-grad <= 0.5\ngini = 0.043\nsamples = 55\nvalue = [88, 2]\nclass = <=50K", fillcolor="#e6843d"] ;
656 -> 657 ;
658 [label="gini = 0.0\nsamples = 3\nvalue = [5, 0]\nclass = <=50K", fillcolor="#e58139"] ;
657 -> 658 ;
659 [label="gini = 0.046\nsamples = 52\nvalue = [83, 2]\nclass = <=50K", fillcolor="#e6843e"] ;
657 -> 659 ;
660 [label="gini = 0.231\nsamples = 10\nvalue = [13, 2]\nclass = <=50K", fillcolor="#e99457"] ;
656 -> 660 ;
661 [label="gini = 0.0\nsamples = 3\nvalue = [6, 0]\nclass = <=50K", fillcolor="#e58139"] ;
655 -> 661 ;
662 [label="gini = 0.0\nsamples = 2\nvalue = [3, 0]\nclass = <=50K", fillcolor="#e58139"] ;
654 -> 662 ;
663 [label="gini = 0.0\nsamples = 2\nvalue = [3, 0]\nclass = <=50K", fillcolor="#e58139"] ;
653 -> 663 ;
664 [label="gini = 0.0\nsamples = 15\nvalue = [26, 0]\nclass = <=50K", fillcolor="#e58139"] ;
650 -> 664 ;
665 [label="gini = 0.0\nsamples = 15\nvalue = [19, 0]\nclass = <=50K", fillcolor="#e58139"] ;
649 -> 665 ;
666 [label="gini = 0.0\nsamples = 30\nvalue = [47, 0]\nclass = <=50K", fillcolor="#e58139"] ;
648 -> 666 ;
667 [label="gini = 0.0\nsamples = 17\nvalue = [33, 0]\nclass = <=50K", fillcolor="#e58139"] ;
645 -> 667 ;
668 [label="relationship_ Own-child <= 0.5\ngini = 0.198\nsamples = 5\nvalue = [8, 1]\nclass = <=50K", fillcolor="#e89152"] ;
632 -> 668 ;
669 [label="education_ Some-college <= 0.5\ngini = 0.32\nsamples = 3\nvalue = [4, 1]\nclass = <=50K", fillcolor="#eca06a"] ;
668 -> 669 ;
670 [label="gini = 0.0\nsamples = 2\nvalue = [4, 0]\nclass = <=50K", fillcolor="#e58139"] ;
669 -> 670 ;
671 [label="gini = 0.0\nsamples = 1\nvalue = [0, 1]\nclass = >50K", fillcolor="#399de5"] ;
669 -> 671 ;
672 [label="gini = 0.0\nsamples = 2\nvalue = [4, 0]\nclass = <=50K", fillcolor="#e58139"] ;
668 -> 672 ;
673 [label="gini = 0.0\nsamples = 10\nvalue = [15, 0]\nclass = <=50K", fillcolor="#e58139"] ;
631 -> 673 ;
674 [label="gini = 0.0\nsamples = 28\nvalue = [44, 0]\nclass = <=50K", fillcolor="#e58139"] ;
630 -> 674 ;
675 [label="relationship_ Other-relative <= 0.5\ngini = 0.42\nsamples = 6\nvalue = [7, 3]\nclass = <=50K", fillcolor="#f0b78e"] ;
629 -> 675 ;
676 [label="gini = 0.0\nsamples = 3\nvalue = [5, 0]\nclass = <=50K", fillcolor="#e58139"] ;
675 -> 676 ;
677 [label="workclass_ Private <= 0.5\ngini = 0.48\nsamples = 3\nvalue = [2, 3]\nclass = >50K", fillcolor="#bddef6"] ;
675 -> 677 ;
678 [label="gini = 0.0\nsamples = 2\nvalue = [2, 0]\nclass = <=50K", fillcolor="#e58139"] ;
677 -> 678 ;
679 [label="gini = 0.0\nsamples = 1\nvalue = [0, 3]\nclass = >50K", fillcolor="#399de5"] ;
677 -> 679 ;
680 [label="native-country_ Puerto-Rico <= 0.5\ngini = 0.203\nsamples = 60\nvalue = [85, 11]\nclass = <=50K", fillcolor="#e89153"] ;
8 -> 680 ;
681 [label="occupation_ Other-service <= 0.5\ngini = 0.213\nsamples = 58\nvalue = [80, 11]\nclass = <=50K", fillcolor="#e99254"] ;
680 -> 681 ;
682 [label="education_ Assoc-voc <= 0.5\ngini = 0.245\nsamples = 49\nvalue = [66, 11]\nclass = <=50K", fillcolor="#e9965a"] ;
681 -> 682 ;
683 [label="gender_ Female <= 0.5\ngini = 0.178\nsamples = 46\nvalue = [64, 7]\nclass = <=50K", fillcolor="#e88f4f"] ;
682 -> 683 ;
684 [label="occupation_ Machine-op-inspct <= 0.5\ngini = 0.264\nsamples = 18\nvalue = [27, 5]\nclass = <=50K", fillcolor="#ea985e"] ;
683 -> 684 ;
685 [label="occupation_ Craft-repair <= 0.5\ngini = 0.311\nsamples = 15\nvalue = [21, 5]\nclass = <=50K", fillcolor="#eb9f68"] ;
684 -> 685 ;
686 [label="education_ HS-grad <= 0.5\ngini = 0.415\nsamples = 11\nvalue = [12, 5]\nclass = <=50K", fillcolor="#f0b58b"] ;
685 -> 686 ;
687 [label="occupation_ Exec-managerial <= 0.5\ngini = 0.486\nsamples = 8\nvalue = [7, 5]\nclass = <=50K", fillcolor="#f8dbc6"] ;
686 -> 687 ;
688 [label="gini = 0.0\nsamples = 4\nvalue = [5, 0]\nclass = <=50K", fillcolor="#e58139"] ;
687 -> 688 ;
689 [label="education_ Assoc-acdm <= 0.5\ngini = 0.408\nsamples = 4\nvalue = [2, 5]\nclass = >50K", fillcolor="#88c4ef"] ;
687 -> 689 ;
690 [label="education_ Bachelors <= 0.5\ngini = 0.444\nsamples = 3\nvalue = [2, 4]\nclass = >50K", fillcolor="#9ccef2"] ;
689 -> 690 ;
691 [label="gini = 0.48\nsamples = 2\nvalue = [2, 3]\nclass = >50K", fillcolor="#bddef6"] ;
690 -> 691 ;
692 [label="gini = 0.0\nsamples = 1\nvalue = [0, 1]\nclass = >50K", fillcolor="#399de5"] ;
690 -> 692 ;
693 [label="gini = 0.0\nsamples = 1\nvalue = [0, 1]\nclass = >50K", fillcolor="#399de5"] ;
689 -> 693 ;
694 [label="gini = 0.0\nsamples = 3\nvalue = [5, 0]\nclass = <=50K", fillcolor="#e58139"] ;
686 -> 694 ;
695 [label="gini = 0.0\nsamples = 4\nvalue = [9, 0]\nclass = <=50K", fillcolor="#e58139"] ;
685 -> 695 ;
696 [label="gini = 0.0\nsamples = 3\nvalue = [6, 0]\nclass = <=50K", fillcolor="#e58139"] ;
684 -> 696 ;
697 [label="relationship_ Unmarried <= 0.5\ngini = 0.097\nsamples = 28\nvalue = [37, 2]\nclass = <=50K", fillcolor="#e68844"] ;
683 -> 697 ;
698 [label="gini = 0.0\nsamples = 7\nvalue = [11, 0]\nclass = <=50K", fillcolor="#e58139"] ;
697 -> 698 ;
699 [label="race_ Amer-Indian-Eskimo <= 0.5\ngini = 0.133\nsamples = 21\nvalue = [26, 2]\nclass = <=50K", fillcolor="#e78b48"] ;
697 -> 699 ;
700 [label="education_ HS-grad <= 0.5\ngini = 0.142\nsamples = 19\nvalue = [24, 2]\nclass = <=50K", fillcolor="#e78c49"] ;
699 -> 700 ;
701 [label="marital-status_ Divorced <= 0.5\ngini = 0.245\nsamples = 11\nvalue = [12, 2]\nclass = <=50K", fillcolor="#e9965a"] ;
700 -> 701 ;
702 [label="marital-status_ Widowed <= 0.5\ngini = 0.444\nsamples = 3\nvalue = [2, 1]\nclass = <=50K", fillcolor="#f2c09c"] ;
701 -> 702 ;
703 [label="gini = 0.0\nsamples = 2\nvalue = [2, 0]\nclass = <=50K", fillcolor="#e58139"] ;
702 -> 703 ;
704 [label="gini = 0.0\nsamples = 1\nvalue = [0, 1]\nclass = >50K", fillcolor="#399de5"] ;
702 -> 704 ;
705 [label="race_ Black <= 0.5\ngini = 0.165\nsamples = 8\nvalue = [10, 1]\nclass = <=50K", fillcolor="#e88e4d"] ;
701 -> 705 ;
706 [label="gini = 0.0\nsamples = 2\nvalue = [4, 0]\nclass = <=50K", fillcolor="#e58139"] ;
705 -> 706 ;
707 [label="education_ Some-college <= 0.5\ngini = 0.245\nsamples = 6\nvalue = [6, 1]\nclass = <=50K", fillcolor="#e9965a"] ;
705 -> 707 ;
708 [label="gini = 0.0\nsamples = 2\nvalue = [2, 0]\nclass = <=50K", fillcolor="#e58139"] ;
707 -> 708 ;
709 [label="occupation_ Exec-managerial <= 0.5\ngini = 0.32\nsamples = 4\nvalue = [4, 1]\nclass = <=50K", fillcolor="#eca06a"] ;
707 -> 709 ;
710 [label="gini = 0.0\nsamples = 2\nvalue = [3, 0]\nclass = <=50K", fillcolor="#e58139"] ;
709 -> 710 ;
711 [label="gini = 0.5\nsamples = 2\nvalue = [1, 1]\nclass = <=50K", fillcolor="#ffffff"] ;
709 -> 711 ;
712 [label="gini = 0.0\nsamples = 8\nvalue = [12, 0]\nclass = <=50K", fillcolor="#e58139"] ;
700 -> 712 ;
713 [label="gini = 0.0\nsamples = 2\nvalue = [2, 0]\nclass = <=50K", fillcolor="#e58139"] ;
699 -> 713 ;
714 [label="occupation_ Tech-support <= 0.5\ngini = 0.444\nsamples = 3\nvalue = [2, 4]\nclass = >50K", fillcolor="#9ccef2"] ;
682 -> 714 ;
715 [label="occupation_ Craft-repair <= 0.5\ngini = 0.32\nsamples = 2\nvalue = [1, 4]\nclass = >50K", fillcolor="#6ab6ec"] ;
714 -> 715 ;
716 [label="gini = 0.0\nsamples = 1\nvalue = [1, 0]\nclass = <=50K", fillcolor="#e58139"] ;
715 -> 716 ;
717 [label="gini = 0.0\nsamples = 1\nvalue = [0, 4]\nclass = >50K", fillcolor="#399de5"] ;
715 -> 717 ;
718 [label="gini = 0.0\nsamples = 1\nvalue = [1, 0]\nclass = <=50K", fillcolor="#e58139"] ;
714 -> 718 ;
719 [label="gini = 0.0\nsamples = 9\nvalue = [14, 0]\nclass = <=50K", fillcolor="#e58139"] ;
681 -> 719 ;
720 [label="gini = 0.0\nsamples = 2\nvalue = [5, 0]\nclass = <=50K", fillcolor="#e58139"] ;
680 -> 720 ;
721 [label="occupation_ Other-service <= 0.5\ngini = 0.146\nsamples = 3475\nvalue = [5092, 437]\nclass = <=50K", fillcolor="#e78c4a"] ;
7 -> 721 ;
722 [label="occupation_ Handlers-cleaners <= 0.5\ngini = 0.168\nsamples = 2857\nvalue = [4112, 421]\nclass = <=50K", fillcolor="#e88e4d"] ;
721 -> 722 ;
723 [label="occupation_ Machine-op-inspct <= 0.5\ngini = 0.177\nsamples = 2670\nvalue = [3831, 417]\nclass = <=50K", fillcolor="#e88f4f"] ;
722 -> 723 ;
724 [label="education_ Bachelors <= 0.5\ngini = 0.192\nsamples = 2380\nvalue = [3393, 408]\nclass = <=50K", fillcolor="#e89051"] ;
723 -> 724 ;
725 [label="occupation_ ? <= 0.5\ngini = 0.146\nsamples = 1875\nvalue = [2743, 237]\nclass = <=50K", fillcolor="#e78c4a"] ;
724 -> 725 ;
726 [label="occupation_ Protective-serv <= 0.5\ngini = 0.158\nsamples = 1652\nvalue = [2398, 227]\nclass = <=50K", fillcolor="#e78d4c"] ;
725 -> 726 ;
727 [label="education_ Doctorate <= 0.5\ngini = 0.152\nsamples = 1589\nvalue = [2310, 208]\nclass = <=50K", fillcolor="#e78c4b"] ;
726 -> 727 ;
728 [label="marital-status_ Never-married <= 0.5\ngini = 0.144\nsamples = 1580\nvalue = [2309, 196]\nclass = <=50K", fillcolor="#e78c4a"] ;
727 -> 728 ;
729 [label="native-country_ South <= 0.5\ngini = 0.198\nsamples = 797\nvalue = [1114, 140]\nclass = <=50K", fillcolor="#e89152"] ;
728 -> 729 ;
730 [label="education_ Some-college <= 0.5\ngini = 0.196\nsamples = 796\nvalue = [1114, 138]\nclass = <=50K", fillcolor="#e89152"] ;
729 -> 730 ;
731 [label="gender_ Male <= 0.5\ngini = 0.18\nsamples = 567\nvalue = [802, 89]\nclass = <=50K", fillcolor="#e88f4f"] ;
730 -> 731 ;
732 [label="occupation_ Tech-support <= 0.5\ngini = 0.13\nsamples = 197\nvalue = [279, 21]\nclass = <=50K", fillcolor="#e78a48"] ;
731 -> 732 ;
733 [label="education_ HS-grad <= 0.5\ngini = 0.138\nsamples = 183\nvalue = [260, 21]\nclass = <=50K", fillcolor="#e78b49"] ;
732 -> 733 ;
734 [label="occupation_ Exec-managerial <= 0.5\ngini = 0.135\nsamples = 62\nvalue = [89, 7]\nclass = <=50K", fillcolor="#e78b49"] ;
733 -> 734 ;
735 [label="education_ 9th <= 0.5\ngini = 0.068\nsamples = 41\nvalue = [55, 2]\nclass = <=50K", fillcolor="#e68640"] ;
734 -> 735 ;
736 [label="occupation_ Craft-repair <= 0.5\ngini = 0.038\nsamples = 38\nvalue = [51, 1]\nclass = <=50K", fillcolor="#e6833d"] ;
735 -> 736 ;
737 [label="occupation_ Priv-house-serv <= 0.5\ngini = 0.051\nsamples = 27\nvalue = [37, 1]\nclass = <=50K", fillcolor="#e6843e"] ;
736 -> 737 ;
738 [label="education_ 10th <= 0.5\ngini = 0.074\nsamples = 19\nvalue = [25, 1]\nclass = <=50K", fillcolor="#e68641"] ;
737 -> 738 ;
739 [label="education_ 7th-8th <= 0.5\ngini = 0.142\nsamples = 11\nvalue = [12, 1]\nclass = <=50K", fillcolor="#e78c49"] ;
738 -> 739 ;
740 [label="education_ 12th <= 0.5\ngini = 0.153\nsamples = 10\nvalue = [11, 1]\nclass = <=50K", fillcolor="#e78c4b"] ;
739 -> 740 ;
741 [label="marital-status_ Widowed <= 0.5\ngini = 0.245\nsamples = 6\nvalue = [6, 1]\nclass = <=50K", fillcolor="#e9965a"] ;
740 -> 741 ;
742 [label="workclass_ Federal-gov <= 0.5\ngini = 0.278\nsamples = 5\nvalue = [5, 1]\nclass = <=50K", fillcolor="#ea9a61"] ;
741 -> 742 ;
743 [label="native-country_ United-States <= 0.5\ngini = 0.32\nsamples = 4\nvalue = [4, 1]\nclass = <=50K", fillcolor="#eca06a"] ;
742 -> 743 ;
744 [label="gini = 0.0\nsamples = 1\nvalue = [1, 0]\nclass = <=50K", fillcolor="#e58139"] ;
743 -> 744 ;
745 [label="education_ Assoc-voc <= 0.5\ngini = 0.375\nsamples = 3\nvalue = [3, 1]\nclass = <=50K", fillcolor="#eeab7b"] ;
743 -> 745 ;
746 [label="gini = 0.0\nsamples = 2\nvalue = [3, 0]\nclass = <=50K", fillcolor="#e58139"] ;
745 -> 746 ;
747 [label="gini = 0.0\nsamples = 1\nvalue = [0, 1]\nclass = >50K", fillcolor="#399de5"] ;
745 -> 747 ;
748 [label="gini = 0.0\nsamples = 1\nvalue = [1, 0]\nclass = <=50K", fillcolor="#e58139"] ;
742 -> 748 ;
749 [label="gini = 0.0\nsamples = 1\nvalue = [1, 0]\nclass = <=50K", fillcolor="#e58139"] ;
741 -> 749 ;
750 [label="gini = 0.0\nsamples = 4\nvalue = [5, 0]\nclass = <=50K", fillcolor="#e58139"] ;
740 -> 750 ;
751 [label="gini = 0.0\nsamples = 1\nvalue = [1, 0]\nclass = <=50K", fillcolor="#e58139"] ;
739 -> 751 ;
752 [label="gini = 0.0\nsamples = 8\nvalue = [13, 0]\nclass = <=50K", fillcolor="#e58139"] ;
738 -> 752 ;
753 [label="gini = 0.0\nsamples = 8\nvalue = [12, 0]\nclass = <=50K", fillcolor="#e58139"] ;
737 -> 753 ;
754 [label="gini = 0.0\nsamples = 11\nvalue = [14, 0]\nclass = <=50K", fillcolor="#e58139"] ;
736 -> 754 ;
755 [label="race_ Black <= 0.5\ngini = 0.32\nsamples = 3\nvalue = [4, 1]\nclass = <=50K", fillcolor="#eca06a"] ;
735 -> 755 ;
756 [label="occupation_ Sales <= 0.5\ngini = 0.444\nsamples = 2\nvalue = [2, 1]\nclass = <=50K", fillcolor="#f2c09c"] ;
755 -> 756 ;
757 [label="gini = 0.0\nsamples = 1\nvalue = [0, 1]\nclass = >50K", fillcolor="#399de5"] ;
756 -> 757 ;
758 [label="gini = 0.0\nsamples = 1\nvalue = [2, 0]\nclass = <=50K", fillcolor="#e58139"] ;
756 -> 758 ;
759 [label="gini = 0.0\nsamples = 1\nvalue = [2, 0]\nclass = <=50K", fillcolor="#e58139"] ;
755 -> 759 ;
760 [label="workclass_ State-gov <= 0.5\ngini = 0.224\nsamples = 21\nvalue = [34, 5]\nclass = <=50K", fillcolor="#e99456"] ;
734 -> 760 ;
761 [label="workclass_ Private <= 0.5\ngini = 0.234\nsamples = 20\nvalue = [32, 5]\nclass = <=50K", fillcolor="#e99558"] ;
760 -> 761 ;
762 [label="gini = 0.0\nsamples = 6\nvalue = [11, 0]\nclass = <=50K", fillcolor="#e58139"] ;
761 -> 762 ;
763 [label="native-country_ Jamaica <= 0.5\ngini = 0.311\nsamples = 14\nvalue = [21, 5]\nclass = <=50K", fillcolor="#eb9f68"] ;
761 -> 763 ;
764 [label="education_ Assoc-voc <= 0.5\ngini = 0.32\nsamples = 13\nvalue = [20, 5]\nclass = <=50K", fillcolor="#eca06a"] ;
763 -> 764 ;
765 [label="marital-status_ Widowed <= 0.5\ngini = 0.444\nsamples = 9\nvalue = [10, 5]\nclass = <=50K", fillcolor="#f2c09c"] ;
764 -> 765 ;
766 [label="education_ 11th <= 0.5\ngini = 0.278\nsamples = 8\nvalue = [10, 2]\nclass = <=50K", fillcolor="#ea9a61"] ;
765 -> 766 ;
767 [label="marital-status_ Divorced <= 0.5\ngini = 0.298\nsamples = 7\nvalue = [9, 2]\nclass = <=50K", fillcolor="#eb9d65"] ;
766 -> 767 ;
768 [label="gini = 0.0\nsamples = 1\nvalue = [1, 0]\nclass = <=50K", fillcolor="#e58139"] ;
767 -> 768 ;
769 [label="gini = 0.32\nsamples = 6\nvalue = [8, 2]\nclass = <=50K", fillcolor="#eca06a"] ;
767 -> 769 ;
770 [label="gini = 0.0\nsamples = 1\nvalue = [1, 0]\nclass = <=50K", fillcolor="#e58139"] ;
766 -> 770 ;
771 [label="gini = 0.0\nsamples = 1\nvalue = [0, 3]\nclass = >50K", fillcolor="#399de5"] ;
765 -> 771 ;
772 [label="gini = 0.0\nsamples = 4\nvalue = [10, 0]\nclass = <=50K", fillcolor="#e58139"] ;
764 -> 772 ;
773 [label="gini = 0.0\nsamples = 1\nvalue = [1, 0]\nclass = <=50K", fillcolor="#e58139"] ;
763 -> 773 ;
774 [label="gini = 0.0\nsamples = 1\nvalue = [2, 0]\nclass = <=50K", fillcolor="#e58139"] ;
760 -> 774 ;
775 [label="workclass_ Local-gov <= 0.5\ngini = 0.14\nsamples = 121\nvalue = [171, 14]\nclass = <=50K", fillcolor="#e78b49"] ;
733 -> 775 ;
776 [label="native-country_ United-States <= 0.5\ngini = 0.144\nsamples = 115\nvalue = [165, 14]\nclass = <=50K", fillcolor="#e78c4a"] ;
775 -> 776 ;
777 [label="occupation_ Priv-house-serv <= 0.5\ngini = 0.245\nsamples = 11\nvalue = [12, 2]\nclass = <=50K", fillcolor="#e9965a"] ;
776 -> 777 ;
778 [label="marital-status_ Widowed <= 0.5\ngini = 0.32\nsamples = 7\nvalue = [8, 2]\nclass = <=50K", fillcolor="#eca06a"] ;
777 -> 778 ;
779 [label="gini = 0.0\nsamples = 6\nvalue = [8, 0]\nclass = <=50K", fillcolor="#e58139"] ;
778 -> 779 ;
780 [label="gini = 0.0\nsamples = 1\nvalue = [0, 2]\nclass = >50K", fillcolor="#399de5"] ;
778 -> 780 ;
781 [label="gini = 0.0\nsamples = 4\nvalue = [4, 0]\nclass = <=50K", fillcolor="#e58139"] ;
777 -> 781 ;
782 [label="race_ White <= 0.5\ngini = 0.135\nsamples = 104\nvalue = [153, 12]\nclass = <=50K", fillcolor="#e78b49"] ;
776 -> 782 ;
783 [label="gini = 0.0\nsamples = 7\nvalue = [11, 0]\nclass = <=50K", fillcolor="#e58139"] ;
782 -> 783 ;
784 [label="workclass_ Federal-gov <= 0.5\ngini = 0.144\nsamples = 97\nvalue = [142, 12]\nclass = <=50K", fillcolor="#e78c4a"] ;
782 -> 784 ;
785 [label="workclass_ Self-emp-not-inc <= 0.5\ngini = 0.146\nsamples = 94\nvalue = [139, 12]\nclass = <=50K", fillcolor="#e78c4a"] ;
784 -> 785 ;
786 [label="marital-status_ Separated <= 0.5\ngini = 0.141\nsamples = 88\nvalue = [133, 11]\nclass = <=50K", fillcolor="#e78b49"] ;
785 -> 786 ;
787 [label="workclass_ Private <= 0.5\ngini = 0.151\nsamples = 80\nvalue = [123, 11]\nclass = <=50K", fillcolor="#e78c4b"] ;
786 -> 787 ;
788 [label="gini = 0.0\nsamples = 4\nvalue = [5, 0]\nclass = <=50K", fillcolor="#e58139"] ;
787 -> 788 ;
789 [label="marital-status_ Divorced <= 0.5\ngini = 0.156\nsamples = 76\nvalue = [118, 11]\nclass = <=50K", fillcolor="#e78d4b"] ;
787 -> 789 ;
790 [label="occupation_ Exec-managerial <= 0.5\ngini = 0.19\nsamples = 25\nvalue = [42, 5]\nclass = <=50K", fillcolor="#e89051"] ;
789 -> 790 ;
791 [label="occupation_ Sales <= 0.5\ngini = 0.188\nsamples = 18\nvalue = [34, 4]\nclass = <=50K", fillcolor="#e89050"] ;
790 -> 791 ;
792 [label="gini = 0.0\nsamples = 3\nvalue = [4, 0]\nclass = <=50K", fillcolor="#e58139"] ;
791 -> 792 ;
793 [label="gini = 0.208\nsamples = 15\nvalue = [30, 4]\nclass = <=50K", fillcolor="#e89253"] ;
791 -> 793 ;
794 [label="marital-status_ Widowed <= 0.5\ngini = 0.198\nsamples = 7\nvalue = [8, 1]\nclass = <=50K", fillcolor="#e89152"] ;
790 -> 794 ;
795 [label="gini = 0.0\nsamples = 2\nvalue = [2, 0]\nclass = <=50K", fillcolor="#e58139"] ;
794 -> 795 ;
796 [label="gini = 0.245\nsamples = 5\nvalue = [6, 1]\nclass = <=50K", fillcolor="#e9965a"] ;
794 -> 796 ;
797 [label="occupation_ Sales <= 0.5\ngini = 0.136\nsamples = 51\nvalue = [76, 6]\nclass = <=50K", fillcolor="#e78b49"] ;
789 -> 797 ;
798 [label="occupation_ Priv-house-serv <= 0.5\ngini = 0.139\nsamples = 27\nvalue = [37, 3]\nclass = <=50K", fillcolor="#e78b49"] ;
797 -> 798 ;
799 [label="occupation_ Craft-repair <= 0.5\ngini = 0.165\nsamples = 23\nvalue = [30, 3]\nclass = <=50K", fillcolor="#e88e4d"] ;
798 -> 799 ;
800 [label="gini = 0.185\nsamples = 20\nvalue = [26, 3]\nclass = <=50K", fillcolor="#e89050"] ;
799 -> 800 ;
801 [label="gini = 0.0\nsamples = 3\nvalue = [4, 0]\nclass = <=50K", fillcolor="#e58139"] ;
799 -> 801 ;
802 [label="gini = 0.0\nsamples = 4\nvalue = [7, 0]\nclass = <=50K", fillcolor="#e58139"] ;
798 -> 802 ;
803 [label="gini = 0.133\nsamples = 24\nvalue = [39, 3]\nclass = <=50K", fillcolor="#e78b48"] ;
797 -> 803 ;
804 [label="gini = 0.0\nsamples = 8\nvalue = [10, 0]\nclass = <=50K", fillcolor="#e58139"] ;
786 -> 804 ;
805 [label="marital-status_ Widowed <= 0.5\ngini = 0.245\nsamples = 6\nvalue = [6, 1]\nclass = <=50K", fillcolor="#e9965a"] ;
785 -> 805 ;
806 [label="gini = 0.444\nsamples = 3\nvalue = [2, 1]\nclass = <=50K", fillcolor="#f2c09c"] ;
805 -> 806 ;
807 [label="gini = 0.0\nsamples = 3\nvalue = [4, 0]\nclass = <=50K", fillcolor="#e58139"] ;
805 -> 807 ;
808 [label="gini = 0.0\nsamples = 3\nvalue = [3, 0]\nclass = <=50K", fillcolor="#e58139"] ;
784 -> 808 ;
809 [label="gini = 0.0\nsamples = 6\nvalue = [6, 0]\nclass = <=50K", fillcolor="#e58139"] ;
775 -> 809 ;
810 [label="gini = 0.0\nsamples = 14\nvalue = [19, 0]\nclass = <=50K", fillcolor="#e58139"] ;
732 -> 810 ;
811 [label="occupation_ Tech-support <= 0.5\ngini = 0.204\nsamples = 370\nvalue = [523, 68]\nclass = <=50K", fillcolor="#e89153"] ;
731 -> 811 ;
812 [label="education_ 9th <= 0.5\ngini = 0.191\nsamples = 359\nvalue = [511, 61]\nclass = <=50K", fillcolor="#e89051"] ;
811 -> 812 ;
813 [label="education_ 10th <= 0.5\ngini = 0.197\nsamples = 347\nvalue = [491, 61]\nclass = <=50K", fillcolor="#e89152"] ;
812 -> 813 ;
814 [label="education_ Assoc-voc <= 0.5\ngini = 0.207\nsamples = 327\nvalue = [458, 61]\nclass = <=50K", fillcolor="#e89253"] ;
813 -> 814 ;
